digraph Tree {
node [shape=box, style="filled, rounded", color="black", fontname=helvetica] ;
edge [fontname=helvetica] ;
0 [label="statisticalReport <= -0.5\ngini = 0.15\nsamples = 100.0%\nvalue = [0.08, 0.92]", fillcolor="#399de5e8"] ;
1 [label="gini = 0.0\nsamples = 0.0%\nvalue = [1.0, 0.0]", fillcolor="#e58139ff"] ;
0 -> 1 [labeldistance=2.5, labelangle=45, headlabel="True"] ;
2 [label="usingIPAddress <= 0.0\ngini = 0.15\nsamples = 100.0%\nvalue = [0.08, 0.92]", fillcolor="#399de5e8"] ;
0 -> 2 [labeldistance=2.5, labelangle=-45, headlabel="False"] ;
3 [label="sfh <= 0.0\ngini = 0.23\nsamples = 62.3%\nvalue = [0.13, 0.87]", fillcolor="#399de5d9"] ;
2 -> 3 ;
4 [label="favicon <= 0.5\ngini = 0.28\nsamples = 48.1%\nvalue = [0.17, 0.83]", fillcolor="#399de5cb"] ;
3 -> 4 ;
5 [label="onMouseOver <= -0.5\ngini = 0.4\nsamples = 14.3%\nvalue = [0.28, 0.72]", fillcolor="#399de59c"] ;
4 -> 5 ;
6 [label="getageOfDomain <= -0.5\ngini = 0.49\nsamples = 3.7%\nvalue = [0.56, 0.44]", fillcolor="#e5813938"] ;
5 -> 6 ;
7 [label="havingSubDomain <= 0.0\ngini = 0.42\nsamples = 3.0%\nvalue = [0.7, 0.3]", fillcolor="#e5813992"] ;
6 -> 7 ;
8 [label="gini = 0.0\nsamples = 0.0%\nvalue = [0.0, 1.0]", fillcolor="#399de5ff"] ;
7 -> 8 ;
9 [label="httpsToken <= -0.5\ngini = 0.42\nsamples = 3.0%\nvalue = [0.7, 0.3]", fillcolor="#e5813993"] ;
7 -> 9 ;
10 [label="favicon <= -0.5\ngini = 0.39\nsamples = 2.0%\nvalue = [0.74, 0.26]", fillcolor="#e58139a5"] ;
9 -> 10 ;
11 [label="urlLength <= 0.0\ngini = 0.48\nsamples = 0.1%\nvalue = [0.41, 0.59]", fillcolor="#399de54e"] ;
10 -> 11 ;
12 [label="prefixSuffix <= 0.0\ngini = 0.5\nsamples = 0.1%\nvalue = [0.45, 0.55]", fillcolor="#399de52e"] ;
11 -> 12 ;
13 [label="gini = 0.48\nsamples = 0.1%\nvalue = [0.6, 0.4]", fillcolor="#e5813955"] ;
12 -> 13 ;
14 [label="gini = 0.0\nsamples = 0.0%\nvalue = [0.0, 1.0]", fillcolor="#399de5ff"] ;
12 -> 14 ;
15 [label="gini = 0.0\nsamples = 0.0%\nvalue = [0.0, 1.0]", fillcolor="#399de5ff"] ;
11 -> 15 ;
16 [label="prefixSuffix <= 0.5\ngini = 0.36\nsamples = 1.9%\nvalue = [0.77, 0.23]", fillcolor="#e58139b2"] ;
10 -> 16 ;
17 [label="prefixSuffix <= -0.5\ngini = 0.39\nsamples = 1.3%\nvalue = [0.73, 0.27]", fillcolor="#e58139a0"] ;
16 -> 17 ;
18 [label="dnsRecord <= 0.0\ngini = 0.34\nsamples = 1.2%\nvalue = [0.79, 0.21]", fillcolor="#e58139b9"] ;
17 -> 18 ;
19 [label="urlLength <= 0.0\ngini = 0.28\nsamples = 1.2%\nvalue = [0.83, 0.17]", fillcolor="#e58139cb"] ;
18 -> 19 ;
20 [label="havingAtSymbol <= 0.0\ngini = 0.19\nsamples = 0.8%\nvalue = [0.9, 0.1]", fillcolor="#e58139e1"] ;
19 -> 20 ;
21 [label="gini = 0.17\nsamples = 0.8%\nvalue = [0.9, 0.1]", fillcolor="#e58139e4"] ;
20 -> 21 ;
22 [label="gini = 0.0\nsamples = 0.0%\nvalue = [0.0, 1.0]", fillcolor="#399de5ff"] ;
20 -> 22 ;
23 [label="gini = 0.42\nsamples = 0.4%\nvalue = [0.7, 0.3]", fillcolor="#e5813994"] ;
19 -> 23 ;
24 [label="gini = 0.0\nsamples = 0.1%\nvalue = [0.0, 1.0]", fillcolor="#399de5ff"] ;
18 -> 24 ;
25 [label="gini = 0.0\nsamples = 0.1%\nvalue = [0.0, 1.0]", fillcolor="#399de5ff"] ;
17 -> 25 ;
26 [label="urlLength <= 0.0\ngini = 0.24\nsamples = 0.6%\nvalue = [0.86, 0.14]", fillcolor="#e58139d7"] ;
16 -> 26 ;
27 [label="havingAtSymbol <= 0.0\ngini = 0.14\nsamples = 0.5%\nvalue = [0.93, 0.07]", fillcolor="#e58139eb"] ;
26 -> 27 ;
28 [label="gini = 0.16\nsamples = 0.4%\nvalue = [0.91, 0.09]", fillcolor="#e58139e6"] ;
27 -> 28 ;
29 [label="gini = 0.0\nsamples = 0.1%\nvalue = [1.0, 0.0]", fillcolor="#e58139ff"] ;
27 -> 29 ;
30 [label="gini = 0.0\nsamples = 0.0%\nvalue = [0.0, 1.0]", fillcolor="#399de5ff"] ;
26 -> 30 ;
31 [label="favicon <= -0.5\ngini = 0.47\nsamples = 0.9%\nvalue = [0.62, 0.38]", fillcolor="#e5813965"] ;
9 -> 31 ;
32 [label="gini = 0.0\nsamples = 0.0%\nvalue = [0.0, 1.0]", fillcolor="#399de5ff"] ;
31 -> 32 ;
33 [label="urlLength <= 0.0\ngini = 0.47\nsamples = 0.9%\nvalue = [0.63, 0.37]", fillcolor="#e5813969"] ;
31 -> 33 ;
34 [label="prefixSuffix <= -0.5\ngini = 0.39\nsamples = 0.7%\nvalue = [0.74, 0.26]", fillcolor="#e58139a5"] ;
33 -> 34 ;
35 [label="dnsRecord <= 0.0\ngini = 0.36\nsamples = 0.5%\nvalue = [0.77, 0.23]", fillcolor="#e58139b1"] ;
34 -> 35 ;
36 [label="httpsToken <= 0.5\ngini = 0.33\nsamples = 0.5%\nvalue = [0.79, 0.21]", fillcolor="#e58139bb"] ;
35 -> 36 ;
37 [label="gini = 0.0\nsamples = 0.0%\nvalue = [0.0, 1.0]", fillcolor="#399de5ff"] ;
36 -> 37 ;
38 [label="gini = 0.3\nsamples = 0.5%\nvalue = [0.82, 0.18]", fillcolor="#e58139c6"] ;
36 -> 38 ;
39 [label="gini = 0.0\nsamples = 0.0%\nvalue = [0.0, 1.0]", fillcolor="#399de5ff"] ;
35 -> 39 ;
40 [label="havingAtSymbol <= -0.5\ngini = 0.44\nsamples = 0.2%\nvalue = [0.67, 0.33]", fillcolor="#e581397f"] ;
34 -> 40 ;
41 [label="httpsToken <= 0.5\ngini = 0.32\nsamples = 0.1%\nvalue = [0.8, 0.2]", fillcolor="#e58139bf"] ;
40 -> 41 ;
42 [label="gini = 0.0\nsamples = 0.0%\nvalue = [1.0, 0.0]", fillcolor="#e58139ff"] ;
41 -> 42 ;
43 [label="gini = 0.36\nsamples = 0.1%\nvalue = [0.76, 0.24]", fillcolor="#e58139b1"] ;
41 -> 43 ;
44 [label="gini = 0.0\nsamples = 0.0%\nvalue = [0.0, 1.0]", fillcolor="#399de5ff"] ;
40 -> 44 ;
45 [label="dnsRecord <= 0.0\ngini = 0.46\nsamples = 0.3%\nvalue = [0.36, 0.64]", fillcolor="#399de56f"] ;
33 -> 45 ;
46 [label="havingAtSymbol <= -0.5\ngini = 0.47\nsamples = 0.3%\nvalue = [0.38, 0.62]", fillcolor="#399de561"] ;
45 -> 46 ;
47 [label="prefixSuffix <= 0.0\ngini = 0.5\nsamples = 0.2%\nvalue = [0.52, 0.48]", fillcolor="#e5813914"] ;
46 -> 47 ;
48 [label="httpsToken <= 0.5\ngini = 0.5\nsamples = 0.2%\nvalue = [0.54, 0.46]", fillcolor="#e5813927"] ;
47 -> 48 ;
49 [label="gini = 0.0\nsamples = 0.0%\nvalue = [0.0, 1.0]", fillcolor="#399de5ff"] ;
48 -> 49 ;
50 [label="gini = 0.48\nsamples = 0.1%\nvalue = [0.59, 0.41]", fillcolor="#e581394e"] ;
48 -> 50 ;
51 [label="gini = 0.0\nsamples = 0.0%\nvalue = [0.0, 1.0]", fillcolor="#399de5ff"] ;
47 -> 51 ;
52 [label="gini = 0.0\nsamples = 0.1%\nvalue = [0.0, 1.0]", fillcolor="#399de5ff"] ;
46 -> 52 ;
53 [label="gini = 0.0\nsamples = 0.0%\nvalue = [0.0, 1.0]", fillcolor="#399de5ff"] ;
45 -> 53 ;
54 [label="gini = 0.0\nsamples = 0.7%\nvalue = [0.0, 1.0]", fillcolor="#399de5ff"] ;
6 -> 54 ;
55 [label="havingSubDomain <= 0.0\ngini = 0.3\nsamples = 10.6%\nvalue = [0.18, 0.82]", fillcolor="#399de5c6"] ;
5 -> 55 ;
56 [label="gini = 0.0\nsamples = 0.3%\nvalue = [0.0, 1.0]", fillcolor="#399de5ff"] ;
55 -> 56 ;
57 [label="urlLength <= 0.0\ngini = 0.3\nsamples = 10.3%\nvalue = [0.19, 0.81]", fillcolor="#399de5c5"] ;
55 -> 57 ;
58 [label="httpsToken <= 0.5\ngini = 0.37\nsamples = 5.3%\nvalue = [0.25, 0.75]", fillcolor="#399de5ab"] ;
57 -> 58 ;
59 [label="doubleSlashRedirecting <= 0.0\ngini = 0.33\nsamples = 4.9%\nvalue = [0.21, 0.79]", fillcolor="#399de5bc"] ;
58 -> 59 ;
60 [label="gini = 0.0\nsamples = 0.0%\nvalue = [0.0, 1.0]", fillcolor="#399de5ff"] ;
59 -> 60 ;
61 [label="dnsRecord <= 0.0\ngini = 0.33\nsamples = 4.9%\nvalue = [0.21, 0.79]", fillcolor="#399de5bc"] ;
59 -> 61 ;
62 [label="getageOfDomain <= -0.5\ngini = 0.35\nsamples = 4.4%\nvalue = [0.23, 0.77]", fillcolor="#399de5b3"] ;
61 -> 62 ;
63 [label="havingAtSymbol <= -0.5\ngini = 0.44\nsamples = 3.2%\nvalue = [0.32, 0.68]", fillcolor="#399de585"] ;
62 -> 63 ;
64 [label="httpsToken <= -0.5\ngini = 0.44\nsamples = 3.2%\nvalue = [0.33, 0.67]", fillcolor="#399de581"] ;
63 -> 64 ;
65 [label="prefixSuffix <= 0.0\ngini = 0.46\nsamples = 1.3%\nvalue = [0.36, 0.64]", fillcolor="#399de570"] ;
64 -> 65 ;
66 [label="gini = 0.38\nsamples = 1.1%\nvalue = [0.26, 0.74]", fillcolor="#399de5a7"] ;
65 -> 66 ;
67 [label="gini = 0.08\nsamples = 0.2%\nvalue = [0.96, 0.04]", fillcolor="#e58139f4"] ;
65 -> 67 ;
68 [label="prefixSuffix <= 0.0\ngini = 0.43\nsamples = 1.9%\nvalue = [0.31, 0.69]", fillcolor="#399de58c"] ;
64 -> 68 ;
69 [label="gini = 0.43\nsamples = 1.7%\nvalue = [0.32, 0.68]", fillcolor="#399de58a"] ;
68 -> 69 ;
70 [label="gini = 0.39\nsamples = 0.1%\nvalue = [0.26, 0.74]", fillcolor="#399de5a4"] ;
68 -> 70 ;
71 [label="gini = 0.0\nsamples = 0.1%\nvalue = [0.0, 1.0]", fillcolor="#399de5ff"] ;
63 -> 71 ;
72 [label="gini = 0.0\nsamples = 1.2%\nvalue = [0.0, 1.0]", fillcolor="#399de5ff"] ;
62 -> 72 ;
73 [label="gini = 0.0\nsamples = 0.4%\nvalue = [0.0, 1.0]", fillcolor="#399de5ff"] ;
61 -> 73 ;
74 [label="prefixSuffix <= 0.0\ngini = 0.26\nsamples = 0.4%\nvalue = [0.85, 0.15]", fillcolor="#e58139d1"] ;
58 -> 74 ;
75 [label="gini = 0.29\nsamples = 0.3%\nvalue = [0.82, 0.18]", fillcolor="#e58139c7"] ;
74 -> 75 ;
76 [label="gini = 0.0\nsamples = 0.0%\nvalue = [1.0, 0.0]", fillcolor="#e58139ff"] ;
74 -> 76 ;
77 [label="havingAtSymbol <= -0.5\ngini = 0.21\nsamples = 5.0%\nvalue = [0.12, 0.88]", fillcolor="#399de5dc"] ;
57 -> 77 ;
78 [label="doubleSlashRedirecting <= 0.0\ngini = 0.24\nsamples = 4.3%\nvalue = [0.14, 0.86]", fillcolor="#399de5d6"] ;
77 -> 78 ;
79 [label="gini = 0.0\nsamples = 0.0%\nvalue = [0.0, 1.0]", fillcolor="#399de5ff"] ;
78 -> 79 ;
80 [label="dnsRecord <= 0.0\ngini = 0.24\nsamples = 4.3%\nvalue = [0.14, 0.86]", fillcolor="#399de5d5"] ;
78 -> 80 ;
81 [label="prefixSuffix <= 0.0\ngini = 0.25\nsamples = 4.1%\nvalue = [0.15, 0.85]", fillcolor="#399de5d4"] ;
80 -> 81 ;
82 [label="onMouseOver <= 0.5\ngini = 0.22\nsamples = 3.9%\nvalue = [0.13, 0.87]", fillcolor="#399de5da"] ;
81 -> 82 ;
83 [label="getageOfDomain <= -0.5\ngini = 0.22\nsamples = 3.9%\nvalue = [0.13, 0.87]", fillcolor="#399de5da"] ;
82 -> 83 ;
84 [label="httpsToken <= -0.5\ngini = 0.29\nsamples = 2.7%\nvalue = [0.18, 0.82]", fillcolor="#399de5c7"] ;
83 -> 84 ;
85 [label="favicon <= -0.5\ngini = 0.37\nsamples = 1.0%\nvalue = [0.25, 0.75]", fillcolor="#399de5ac"] ;
84 -> 85 ;
86 [label="gini = 0.0\nsamples = 0.0%\nvalue = [0.0, 1.0]", fillcolor="#399de5ff"] ;
85 -> 86 ;
87 [label="gini = 0.38\nsamples = 1.0%\nvalue = [0.25, 0.75]", fillcolor="#399de5aa"] ;
85 -> 87 ;
88 [label="favicon <= -0.5\ngini = 0.24\nsamples = 1.8%\nvalue = [0.14, 0.86]", fillcolor="#399de5d6"] ;
84 -> 88 ;
89 [label="gini = 0.0\nsamples = 0.0%\nvalue = [0.0, 1.0]", fillcolor="#399de5ff"] ;
88 -> 89 ;
90 [label="httpsToken <= 0.5\ngini = 0.24\nsamples = 1.7%\nvalue = [0.14, 0.86]", fillcolor="#399de5d6"] ;
88 -> 90 ;
91 [label="gini = 0.24\nsamples = 1.7%\nvalue = [0.14, 0.86]", fillcolor="#399de5d5"] ;
90 -> 91 ;
92 [label="gini = 0.0\nsamples = 0.0%\nvalue = [0.0, 1.0]", fillcolor="#399de5ff"] ;
90 -> 92 ;
93 [label="gini = 0.0\nsamples = 1.1%\nvalue = [0.0, 1.0]", fillcolor="#399de5ff"] ;
83 -> 93 ;
94 [label="gini = 0.0\nsamples = 0.0%\nvalue = [0.0, 1.0]", fillcolor="#399de5ff"] ;
82 -> 94 ;
95 [label="onMouseOver <= 0.5\ngini = 0.46\nsamples = 0.3%\nvalue = [0.36, 0.64]", fillcolor="#399de56e"] ;
81 -> 95 ;
96 [label="favicon <= -0.5\ngini = 0.5\nsamples = 0.2%\nvalue = [0.49, 0.51]", fillcolor="#399de50e"] ;
95 -> 96 ;
97 [label="gini = 0.0\nsamples = 0.0%\nvalue = [0.0, 1.0]", fillcolor="#399de5ff"] ;
96 -> 97 ;
98 [label="httpsToken <= -0.5\ngini = 0.49\nsamples = 0.2%\nvalue = [0.57, 0.43]", fillcolor="#e581393c"] ;
96 -> 98 ;
99 [label="gini = 0.0\nsamples = 0.0%\nvalue = [0.0, 1.0]", fillcolor="#399de5ff"] ;
98 -> 99 ;
100 [label="getageOfDomain <= -0.5\ngini = 0.39\nsamples = 0.1%\nvalue = [0.74, 0.26]", fillcolor="#e58139a5"] ;
98 -> 100 ;
101 [label="gini = 0.19\nsamples = 0.1%\nvalue = [0.89, 0.11]", fillcolor="#e58139e1"] ;
100 -> 101 ;
102 [label="gini = 0.0\nsamples = 0.0%\nvalue = [0.0, 1.0]", fillcolor="#399de5ff"] ;
100 -> 102 ;
103 [label="gini = 0.0\nsamples = 0.1%\nvalue = [0.0, 1.0]", fillcolor="#399de5ff"] ;
95 -> 103 ;
104 [label="gini = 0.0\nsamples = 0.1%\nvalue = [0.0, 1.0]", fillcolor="#399de5ff"] ;
80 -> 104 ;
105 [label="gini = 0.0\nsamples = 0.7%\nvalue = [0.0, 1.0]", fillcolor="#399de5ff"] ;
77 -> 105 ;
106 [label="doubleSlashRedirecting <= 0.0\ngini = 0.21\nsamples = 33.8%\nvalue = [0.12, 0.88]", fillcolor="#399de5dc"] ;
4 -> 106 ;
107 [label="gini = 0.0\nsamples = 1.2%\nvalue = [0.0, 1.0]", fillcolor="#399de5ff"] ;
106 -> 107 ;
108 [label="getageOfDomain <= -0.5\ngini = 0.22\nsamples = 32.7%\nvalue = [0.12, 0.88]", fillcolor="#399de5db"] ;
106 -> 108 ;
109 [label="dnsRecord <= 0.0\ngini = 0.32\nsamples = 19.7%\nvalue = [0.2, 0.8]", fillcolor="#399de5be"] ;
108 -> 109 ;
110 [label="havingSubDomain <= 0.0\ngini = 0.33\nsamples = 19.0%\nvalue = [0.21, 0.79]", fillcolor="#399de5ba"] ;
109 -> 110 ;
111 [label="gini = 0.0\nsamples = 0.1%\nvalue = [0.0, 1.0]", fillcolor="#399de5ff"] ;
110 -> 111 ;
112 [label="urlLength <= 0.0\ngini = 0.34\nsamples = 18.9%\nvalue = [0.21, 0.79]", fillcolor="#399de5ba"] ;
110 -> 112 ;
113 [label="onMouseOver <= 0.5\ngini = 0.42\nsamples = 10.0%\nvalue = [0.31, 0.69]", fillcolor="#399de58f"] ;
112 -> 113 ;
114 [label="prefixSuffix <= -0.5\ngini = 0.42\nsamples = 9.8%\nvalue = [0.29, 0.71]", fillcolor="#399de595"] ;
113 -> 114 ;
115 [label="havingAtSymbol <= 0.0\ngini = 0.43\nsamples = 7.1%\nvalue = [0.32, 0.68]", fillcolor="#399de589"] ;
114 -> 115 ;
116 [label="httpsToken <= -0.5\ngini = 0.43\nsamples = 6.9%\nvalue = [0.31, 0.69]", fillcolor="#399de58d"] ;
115 -> 116 ;
117 [label="onMouseOver <= -0.5\ngini = 0.48\nsamples = 3.7%\nvalue = [0.41, 0.59]", fillcolor="#399de54f"] ;
116 -> 117 ;
118 [label="gini = 0.49\nsamples = 2.4%\nvalue = [0.44, 0.56]", fillcolor="#399de537"] ;
117 -> 118 ;
119 [label="gini = 0.46\nsamples = 1.3%\nvalue = [0.35, 0.65]", fillcolor="#399de575"] ;
117 -> 119 ;
120 [label="httpsToken <= 0.5\ngini = 0.32\nsamples = 3.2%\nvalue = [0.2, 0.8]", fillcolor="#399de5c1"] ;
116 -> 120 ;
121 [label="onMouseOver <= -0.5\ngini = 0.14\nsamples = 2.4%\nvalue = [0.07, 0.93]", fillcolor="#399de5eb"] ;
120 -> 121 ;
122 [label="gini = 0.0\nsamples = 0.1%\nvalue = [0.0, 1.0]", fillcolor="#399de5ff"] ;
121 -> 122 ;
123 [label="gini = 0.15\nsamples = 2.2%\nvalue = [0.08, 0.92]", fillcolor="#399de5e9"] ;
121 -> 123 ;
124 [label="onMouseOver <= -0.5\ngini = 0.5\nsamples = 0.8%\nvalue = [0.53, 0.47]", fillcolor="#e5813920"] ;
120 -> 124 ;
125 [label="gini = 0.46\nsamples = 0.5%\nvalue = [0.35, 0.65]", fillcolor="#399de574"] ;
124 -> 125 ;
126 [label="gini = 0.31\nsamples = 0.3%\nvalue = [0.81, 0.19]", fillcolor="#e58139c3"] ;
124 -> 126 ;
127 [label="httpsToken <= -0.5\ngini = 0.49\nsamples = 0.2%\nvalue = [0.57, 0.43]", fillcolor="#e581393c"] ;
115 -> 127 ;
128 [label="onMouseOver <= -0.5\ngini = 0.45\nsamples = 0.2%\nvalue = [0.65, 0.35]", fillcolor="#e5813978"] ;
127 -> 128 ;
129 [label="gini = 0.0\nsamples = 0.0%\nvalue = [0.0, 1.0]", fillcolor="#399de5ff"] ;
128 -> 129 ;
130 [label="gini = 0.41\nsamples = 0.1%\nvalue = [0.71, 0.29]", fillcolor="#e5813996"] ;
128 -> 130 ;
131 [label="gini = 0.0\nsamples = 0.0%\nvalue = [0.0, 1.0]", fillcolor="#399de5ff"] ;
127 -> 131 ;
132 [label="havingAtSymbol <= -0.5\ngini = 0.36\nsamples = 2.7%\nvalue = [0.24, 0.76]", fillcolor="#399de5b0"] ;
114 -> 132 ;
133 [label="httpsToken <= -0.5\ngini = 0.42\nsamples = 2.0%\nvalue = [0.3, 0.7]", fillcolor="#399de592"] ;
132 -> 133 ;
134 [label="onMouseOver <= -0.5\ngini = 0.5\nsamples = 1.0%\nvalue = [0.47, 0.53]", fillcolor="#399de51c"] ;
133 -> 134 ;
135 [label="gini = 0.48\nsamples = 0.7%\nvalue = [0.59, 0.41]", fillcolor="#e581394e"] ;
134 -> 135 ;
136 [label="gini = 0.31\nsamples = 0.3%\nvalue = [0.19, 0.81]", fillcolor="#399de5c1"] ;
134 -> 136 ;
137 [label="onMouseOver <= -0.5\ngini = 0.26\nsamples = 1.0%\nvalue = [0.15, 0.85]", fillcolor="#399de5d0"] ;
133 -> 137 ;
138 [label="gini = 0.0\nsamples = 0.2%\nvalue = [0.0, 1.0]", fillcolor="#399de5ff"] ;
137 -> 138 ;
139 [label="httpsToken <= 0.5\ngini = 0.33\nsamples = 0.8%\nvalue = [0.21, 0.79]", fillcolor="#399de5bd"] ;
137 -> 139 ;
140 [label="gini = 0.02\nsamples = 0.6%\nvalue = [0.01, 0.99]", fillcolor="#399de5fc"] ;
139 -> 140 ;
141 [label="gini = 0.35\nsamples = 0.2%\nvalue = [0.78, 0.22]", fillcolor="#e58139b6"] ;
139 -> 141 ;
142 [label="prefixSuffix <= 0.5\ngini = 0.13\nsamples = 0.7%\nvalue = [0.07, 0.93]", fillcolor="#399de5ec"] ;
132 -> 142 ;
143 [label="httpsToken <= -0.5\ngini = 0.12\nsamples = 0.7%\nvalue = [0.06, 0.94]", fillcolor="#399de5ee"] ;
142 -> 143 ;
144 [label="onMouseOver <= -0.5\ngini = 0.28\nsamples = 0.3%\nvalue = [0.17, 0.83]", fillcolor="#399de5ca"] ;
143 -> 144 ;
145 [label="gini = 0.39\nsamples = 0.2%\nvalue = [0.26, 0.74]", fillcolor="#399de5a5"] ;
144 -> 145 ;
146 [label="gini = 0.0\nsamples = 0.1%\nvalue = [0.0, 1.0]", fillcolor="#399de5ff"] ;
144 -> 146 ;
147 [label="gini = 0.0\nsamples = 0.4%\nvalue = [0.0, 1.0]", fillcolor="#399de5ff"] ;
143 -> 147 ;
148 [label="gini = 0.38\nsamples = 0.0%\nvalue = [0.25, 0.75]", fillcolor="#399de5aa"] ;
142 -> 148 ;
149 [label="havingAtSymbol <= -0.5\ngini = 0.26\nsamples = 0.2%\nvalue = [0.85, 0.15]", fillcolor="#e58139d1"] ;
113 -> 149 ;
150 [label="prefixSuffix <= 0.0\ngini = 0.27\nsamples = 0.2%\nvalue = [0.84, 0.16]", fillcolor="#e58139ce"] ;
149 -> 150 ;
151 [label="httpsToken <= -0.5\ngini = 0.49\nsamples = 0.1%\nvalue = [0.56, 0.44]", fillcolor="#e5813933"] ;
150 -> 151 ;
152 [label="gini = 0.0\nsamples = 0.0%\nvalue = [1.0, 0.0]", fillcolor="#e58139ff"] ;
151 -> 152 ;
153 [label="gini = 0.0\nsamples = 0.0%\nvalue = [0.0, 1.0]", fillcolor="#399de5ff"] ;
151 -> 153 ;
154 [label="gini = 0.0\nsamples = 0.1%\nvalue = [1.0, 0.0]", fillcolor="#e58139ff"] ;
150 -> 154 ;
155 [label="gini = 0.0\nsamples = 0.0%\nvalue = [1.0, 0.0]", fillcolor="#e58139ff"] ;
149 -> 155 ;
156 [label="prefixSuffix <= 0.5\ngini = 0.2\nsamples = 8.9%\nvalue = [0.11, 0.89]", fillcolor="#399de5e0"] ;
112 -> 156 ;
157 [label="prefixSuffix <= -0.5\ngini = 0.16\nsamples = 7.1%\nvalue = [0.09, 0.91]", fillcolor="#399de5e6"] ;
156 -> 157 ;
158 [label="httpsToken <= 0.5\ngini = 0.2\nsamples = 5.5%\nvalue = [0.12, 0.88]", fillcolor="#399de5de"] ;
157 -> 158 ;
159 [label="httpsToken <= -0.5\ngini = 0.21\nsamples = 5.0%\nvalue = [0.12, 0.88]", fillcolor="#399de5dc"] ;
158 -> 159 ;
160 [label="onMouseOver <= -0.5\ngini = 0.2\nsamples = 1.9%\nvalue = [0.11, 0.89]", fillcolor="#399de5df"] ;
159 -> 160 ;
161 [label="havingAtSymbol <= 0.0\ngini = 0.35\nsamples = 1.0%\nvalue = [0.23, 0.77]", fillcolor="#399de5b3"] ;
160 -> 161 ;
162 [label="gini = 0.36\nsamples = 0.9%\nvalue = [0.24, 0.76]", fillcolor="#399de5b0"] ;
161 -> 162 ;
163 [label="gini = 0.0\nsamples = 0.0%\nvalue = [0.0, 1.0]", fillcolor="#399de5ff"] ;
161 -> 163 ;
164 [label="gini = 0.0\nsamples = 0.9%\nvalue = [0.0, 1.0]", fillcolor="#399de5ff"] ;
160 -> 164 ;
165 [label="onMouseOver <= -0.5\ngini = 0.22\nsamples = 3.1%\nvalue = [0.12, 0.88]", fillcolor="#399de5db"] ;
159 -> 165 ;
166 [label="gini = 0.0\nsamples = 0.3%\nvalue = [0.0, 1.0]", fillcolor="#399de5ff"] ;
165 -> 166 ;
167 [label="havingAtSymbol <= 0.0\ngini = 0.24\nsamples = 2.8%\nvalue = [0.14, 0.86]", fillcolor="#399de5d6"] ;
165 -> 167 ;
168 [label="onMouseOver <= 0.5\ngini = 0.24\nsamples = 2.7%\nvalue = [0.14, 0.86]", fillcolor="#399de5d5"] ;
167 -> 168 ;
169 [label="gini = 0.24\nsamples = 2.7%\nvalue = [0.14, 0.86]", fillcolor="#399de5d5"] ;
168 -> 169 ;
170 [label="gini = 0.0\nsamples = 0.0%\nvalue = [0.0, 1.0]", fillcolor="#399de5ff"] ;
168 -> 170 ;
171 [label="gini = 0.0\nsamples = 0.0%\nvalue = [0.0, 1.0]", fillcolor="#399de5ff"] ;
167 -> 171 ;
172 [label="onMouseOver <= -0.5\ngini = 0.13\nsamples = 0.4%\nvalue = [0.07, 0.93]", fillcolor="#399de5ec"] ;
158 -> 172 ;
173 [label="gini = 0.0\nsamples = 0.3%\nvalue = [0.0, 1.0]", fillcolor="#399de5ff"] ;
172 -> 173 ;
174 [label="onMouseOver <= 0.5\ngini = 0.43\nsamples = 0.1%\nvalue = [0.31, 0.69]", fillcolor="#399de58e"] ;
172 -> 174 ;
175 [label="gini = 0.46\nsamples = 0.1%\nvalue = [0.36, 0.64]", fillcolor="#399de56d"] ;
174 -> 175 ;
176 [label="gini = 0.0\nsamples = 0.0%\nvalue = [0.0, 1.0]", fillcolor="#399de5ff"] ;
174 -> 176 ;
177 [label="gini = 0.0\nsamples = 1.7%\nvalue = [0.0, 1.0]", fillcolor="#399de5ff"] ;
157 -> 177 ;
178 [label="havingAtSymbol <= 0.0\ngini = 0.32\nsamples = 1.7%\nvalue = [0.2, 0.8]", fillcolor="#399de5bf"] ;
156 -> 178 ;
179 [label="httpsToken <= -0.5\ngini = 0.37\nsamples = 1.4%\nvalue = [0.25, 0.75]", fillcolor="#399de5ab"] ;
178 -> 179 ;
180 [label="onMouseOver <= -0.5\ngini = 0.49\nsamples = 0.6%\nvalue = [0.45, 0.55]", fillcolor="#399de531"] ;
179 -> 180 ;
181 [label="gini = 0.5\nsamples = 0.4%\nvalue = [0.52, 0.48]", fillcolor="#e5813914"] ;
180 -> 181 ;
182 [label="gini = 0.45\nsamples = 0.3%\nvalue = [0.34, 0.66]", fillcolor="#399de57a"] ;
180 -> 182 ;
183 [label="onMouseOver <= -0.5\ngini = 0.13\nsamples = 0.7%\nvalue = [0.07, 0.93]", fillcolor="#399de5eb"] ;
179 -> 183 ;
184 [label="gini = 0.0\nsamples = 0.2%\nvalue = [0.0, 1.0]", fillcolor="#399de5ff"] ;
183 -> 184 ;
185 [label="httpsToken <= 0.5\ngini = 0.19\nsamples = 0.5%\nvalue = [0.11, 0.89]", fillcolor="#399de5e0"] ;
183 -> 185 ;
186 [label="gini = 0.0\nsamples = 0.4%\nvalue = [0.0, 1.0]", fillcolor="#399de5ff"] ;
185 -> 186 ;
187 [label="gini = 0.0\nsamples = 0.0%\nvalue = [1.0, 0.0]", fillcolor="#e58139ff"] ;
185 -> 187 ;
188 [label="gini = 0.0\nsamples = 0.3%\nvalue = [0.0, 1.0]", fillcolor="#399de5ff"] ;
178 -> 188 ;
189 [label="gini = 0.0\nsamples = 0.8%\nvalue = [0.0, 1.0]", fillcolor="#399de5ff"] ;
109 -> 189 ;
190 [label="gini = 0.0\nsamples = 12.9%\nvalue = [0.0, 1.0]", fillcolor="#399de5ff"] ;
108 -> 190 ;
191 [label="gini = 0.0\nsamples = 14.2%\nvalue = [0.0, 1.0]", fillcolor="#399de5ff"] ;
3 -> 191 ;
192 [label="gini = 0.0\nsamples = 37.6%\nvalue = [0.0, 1.0]", fillcolor="#399de5ff"] ;
2 -> 192 ;
}