digraph Tree {
node [shape=box, style="filled, rounded", color="black", fontname=helvetica] ;
edge [fontname=helvetica] ;
0 [label="linksInTags <= -0.5\ngini = 0.15\nsamples = 100.0%\nvalue = [0.08, 0.92]", fillcolor="#399de5e9"] ;
1 [label="gini = 0.0\nsamples = 0.0%\nvalue = [1.0, 0.0]", fillcolor="#e58139ff"] ;
0 -> 1 [labeldistance=2.5, labelangle=45, headlabel="True"] ;
2 [label="getageOfDomain <= -0.5\ngini = 0.15\nsamples = 100.0%\nvalue = [0.08, 0.92]", fillcolor="#399de5e9"] ;
0 -> 2 [labeldistance=2.5, labelangle=-45, headlabel="False"] ;
3 [label="urlLength <= 0.0\ngini = 0.27\nsamples = 47.4%\nvalue = [0.16, 0.84]", fillcolor="#399de5cd"] ;
2 -> 3 ;
4 [label="havingAtSymbol <= -0.5\ngini = 0.39\nsamples = 23.1%\nvalue = [0.27, 0.73]", fillcolor="#399de5a2"] ;
3 -> 4 ;
5 [label="usingIPAddress <= 0.0\ngini = 0.41\nsamples = 21.2%\nvalue = [0.28, 0.72]", fillcolor="#399de59a"] ;
4 -> 5 ;
6 [label="dnsRecord <= 0.0\ngini = 0.45\nsamples = 17.3%\nvalue = [0.35, 0.65]", fillcolor="#399de578"] ;
5 -> 6 ;
7 [label="httpsToken <= -0.5\ngini = 0.46\nsamples = 16.8%\nvalue = [0.36, 0.64]", fillcolor="#399de571"] ;
6 -> 7 ;
8 [label="onMouseOver <= 0.5\ngini = 0.5\nsamples = 8.5%\nvalue = [0.46, 0.54]", fillcolor="#399de524"] ;
7 -> 8 ;
9 [label="prefixSuffix <= 0.0\ngini = 0.49\nsamples = 8.3%\nvalue = [0.45, 0.55]", fillcolor="#399de532"] ;
8 -> 9 ;
10 [label="favicon <= 0.5\ngini = 0.49\nsamples = 6.6%\nvalue = [0.42, 0.58]", fillcolor="#399de547"] ;
9 -> 10 ;
11 [label="sfh <= 0.0\ngini = 0.5\nsamples = 2.2%\nvalue = [0.5, 0.5]", fillcolor="#e5813902"] ;
10 -> 11 ;
12 [label="favicon <= -0.5\ngini = 0.49\nsamples = 1.9%\nvalue = [0.57, 0.43]", fillcolor="#e581393c"] ;
11 -> 12 ;
13 [label="gini = 0.39\nsamples = 0.1%\nvalue = [0.73, 0.27]", fillcolor="#e58139a2"] ;
12 -> 13 ;
14 [label="onMouseOver <= -0.5\ngini = 0.49\nsamples = 1.8%\nvalue = [0.56, 0.44]", fillcolor="#e5813935"] ;
12 -> 14 ;
15 [label="gini = 0.26\nsamples = 0.7%\nvalue = [0.85, 0.15]", fillcolor="#e58139d2"] ;
14 -> 15 ;
16 [label="gini = 0.47\nsamples = 1.1%\nvalue = [0.38, 0.62]", fillcolor="#399de566"] ;
14 -> 16 ;
17 [label="gini = 0.0\nsamples = 0.3%\nvalue = [0.0, 1.0]", fillcolor="#399de5ff"] ;
11 -> 17 ;
18 [label="sfh <= 0.0\ngini = 0.47\nsamples = 4.3%\nvalue = [0.38, 0.62]", fillcolor="#399de566"] ;
10 -> 18 ;
19 [label="havingSubDomain <= 0.0\ngini = 0.5\nsamples = 3.6%\nvalue = [0.46, 0.54]", fillcolor="#399de52a"] ;
18 -> 19 ;
20 [label="gini = 0.0\nsamples = 0.0%\nvalue = [0.0, 1.0]", fillcolor="#399de5ff"] ;
19 -> 20 ;
21 [label="onMouseOver <= -0.5\ngini = 0.5\nsamples = 3.6%\nvalue = [0.46, 0.54]", fillcolor="#399de527"] ;
19 -> 21 ;
22 [label="gini = 0.5\nsamples = 2.4%\nvalue = [0.48, 0.52]", fillcolor="#399de510"] ;
21 -> 22 ;
23 [label="gini = 0.48\nsamples = 1.1%\nvalue = [0.4, 0.6]", fillcolor="#399de552"] ;
21 -> 23 ;
24 [label="gini = 0.0\nsamples = 0.8%\nvalue = [0.0, 1.0]", fillcolor="#399de5ff"] ;
18 -> 24 ;
25 [label="havingSubDomain <= 0.0\ngini = 0.49\nsamples = 1.7%\nvalue = [0.55, 0.45]", fillcolor="#e5813930"] ;
9 -> 25 ;
26 [label="gini = 0.0\nsamples = 0.0%\nvalue = [0.0, 1.0]", fillcolor="#399de5ff"] ;
25 -> 26 ;
27 [label="sfh <= 0.0\ngini = 0.49\nsamples = 1.7%\nvalue = [0.55, 0.45]", fillcolor="#e5813932"] ;
25 -> 27 ;
28 [label="favicon <= 0.5\ngini = 0.48\nsamples = 1.6%\nvalue = [0.6, 0.4]", fillcolor="#e5813953"] ;
27 -> 28 ;
29 [label="onMouseOver <= -0.5\ngini = 0.16\nsamples = 0.5%\nvalue = [0.91, 0.09]", fillcolor="#e58139e6"] ;
28 -> 29 ;
30 [label="gini = 0.19\nsamples = 0.4%\nvalue = [0.89, 0.11]", fillcolor="#e58139e1"] ;
29 -> 30 ;
31 [label="gini = 0.09\nsamples = 0.2%\nvalue = [0.95, 0.05]", fillcolor="#e58139f2"] ;
29 -> 31 ;
32 [label="onMouseOver <= -0.5\ngini = 0.49\nsamples = 1.1%\nvalue = [0.45, 0.55]", fillcolor="#399de532"] ;
28 -> 32 ;
33 [label="gini = 0.49\nsamples = 0.7%\nvalue = [0.57, 0.43]", fillcolor="#e581393b"] ;
32 -> 33 ;
34 [label="gini = 0.33\nsamples = 0.3%\nvalue = [0.21, 0.79]", fillcolor="#399de5ba"] ;
32 -> 34 ;
35 [label="gini = 0.0\nsamples = 0.1%\nvalue = [0.0, 1.0]", fillcolor="#399de5ff"] ;
27 -> 35 ;
36 [label="prefixSuffix <= 0.0\ngini = 0.1\nsamples = 0.2%\nvalue = [0.95, 0.05]", fillcolor="#e58139f1"] ;
8 -> 36 ;
37 [label="sfh <= 0.0\ngini = 0.12\nsamples = 0.1%\nvalue = [0.93, 0.07]", fillcolor="#e58139ed"] ;
36 -> 37 ;
38 [label="gini = 0.0\nsamples = 0.1%\nvalue = [1.0, 0.0]", fillcolor="#e58139ff"] ;
37 -> 38 ;
39 [label="gini = 0.0\nsamples = 0.0%\nvalue = [0.0, 1.0]", fillcolor="#399de5ff"] ;
37 -> 39 ;
40 [label="gini = 0.08\nsamples = 0.1%\nvalue = [0.96, 0.04]", fillcolor="#e58139f4"] ;
36 -> 40 ;
41 [label="prefixSuffix <= 0.0\ngini = 0.38\nsamples = 8.3%\nvalue = [0.25, 0.75]", fillcolor="#399de5aa"] ;
7 -> 41 ;
42 [label="httpsToken <= 0.5\ngini = 0.38\nsamples = 7.0%\nvalue = [0.26, 0.74]", fillcolor="#399de5a6"] ;
41 -> 42 ;
43 [label="onMouseOver <= -0.5\ngini = 0.24\nsamples = 5.3%\nvalue = [0.14, 0.86]", fillcolor="#399de5d6"] ;
42 -> 43 ;
44 [label="favicon <= 0.5\ngini = 0.06\nsamples = 0.3%\nvalue = [0.03, 0.97]", fillcolor="#399de5f7"] ;
43 -> 44 ;
45 [label="gini = 0.32\nsamples = 0.0%\nvalue = [0.2, 0.8]", fillcolor="#399de5bf"] ;
44 -> 45 ;
46 [label="gini = 0.0\nsamples = 0.2%\nvalue = [0.0, 1.0]", fillcolor="#399de5ff"] ;
44 -> 46 ;
47 [label="sfh <= 0.0\ngini = 0.25\nsamples = 5.1%\nvalue = [0.14, 0.86]", fillcolor="#399de5d4"] ;
43 -> 47 ;
48 [label="favicon <= 0.5\ngini = 0.29\nsamples = 4.1%\nvalue = [0.18, 0.82]", fillcolor="#399de5c8"] ;
47 -> 48 ;
49 [label="gini = 0.43\nsamples = 1.8%\nvalue = [0.31, 0.69]", fillcolor="#399de58d"] ;
48 -> 49 ;
50 [label="gini = 0.14\nsamples = 2.3%\nvalue = [0.08, 0.92]", fillcolor="#399de5e9"] ;
48 -> 50 ;
51 [label="gini = 0.0\nsamples = 1.0%\nvalue = [0.0, 1.0]", fillcolor="#399de5ff"] ;
47 -> 51 ;
52 [label="sfh <= 0.0\ngini = 0.46\nsamples = 1.7%\nvalue = [0.64, 0.36]", fillcolor="#e5813972"] ;
42 -> 52 ;
53 [label="onMouseOver <= -0.5\ngini = 0.43\nsamples = 1.5%\nvalue = [0.68, 0.32]", fillcolor="#e5813989"] ;
52 -> 53 ;
54 [label="favicon <= 0.5\ngini = 0.48\nsamples = 1.0%\nvalue = [0.6, 0.4]", fillcolor="#e5813956"] ;
53 -> 54 ;
55 [label="favicon <= -0.5\ngini = 0.26\nsamples = 0.4%\nvalue = [0.85, 0.15]", fillcolor="#e58139d1"] ;
54 -> 55 ;
56 [label="gini = 0.0\nsamples = 0.0%\nvalue = [0.0, 1.0]", fillcolor="#399de5ff"] ;
55 -> 56 ;
57 [label="gini = 0.23\nsamples = 0.4%\nvalue = [0.87, 0.13]", fillcolor="#e58139d8"] ;
55 -> 57 ;
58 [label="gini = 0.5\nsamples = 0.6%\nvalue = [0.47, 0.53]", fillcolor="#399de51c"] ;
54 -> 58 ;
59 [label="onMouseOver <= 0.5\ngini = 0.29\nsamples = 0.6%\nvalue = [0.82, 0.18]", fillcolor="#e58139c8"] ;
53 -> 59 ;
60 [label="favicon <= 0.5\ngini = 0.28\nsamples = 0.6%\nvalue = [0.83, 0.17]", fillcolor="#e58139cc"] ;
59 -> 60 ;
61 [label="gini = 0.16\nsamples = 0.3%\nvalue = [0.91, 0.09]", fillcolor="#e58139e6"] ;
60 -> 61 ;
62 [label="gini = 0.35\nsamples = 0.3%\nvalue = [0.77, 0.23]", fillcolor="#e58139b4"] ;
60 -> 62 ;
63 [label="gini = 0.0\nsamples = 0.0%\nvalue = [0.0, 1.0]", fillcolor="#399de5ff"] ;
59 -> 63 ;
64 [label="gini = 0.0\nsamples = 0.1%\nvalue = [0.0, 1.0]", fillcolor="#399de5ff"] ;
52 -> 64 ;
65 [label="onMouseOver <= -0.5\ngini = 0.33\nsamples = 1.3%\nvalue = [0.21, 0.79]", fillcolor="#399de5bc"] ;
41 -> 65 ;
66 [label="httpsToken <= 0.5\ngini = 0.25\nsamples = 0.3%\nvalue = [0.15, 0.85]", fillcolor="#399de5d2"] ;
65 -> 66 ;
67 [label="gini = 0.0\nsamples = 0.1%\nvalue = [0.0, 1.0]", fillcolor="#399de5ff"] ;
66 -> 67 ;
68 [label="favicon <= 0.5\ngini = 0.38\nsamples = 0.2%\nvalue = [0.25, 0.75]", fillcolor="#399de5aa"] ;
66 -> 68 ;
69 [label="sfh <= 0.0\ngini = 0.42\nsamples = 0.1%\nvalue = [0.7, 0.3]", fillcolor="#e5813992"] ;
68 -> 69 ;
70 [label="gini = 0.22\nsamples = 0.1%\nvalue = [0.88, 0.12]", fillcolor="#e58139db"] ;
69 -> 70 ;
71 [label="gini = 0.0\nsamples = 0.0%\nvalue = [0.0, 1.0]", fillcolor="#399de5ff"] ;
69 -> 71 ;
72 [label="gini = 0.0\nsamples = 0.1%\nvalue = [0.0, 1.0]", fillcolor="#399de5ff"] ;
68 -> 72 ;
73 [label="favicon <= -0.5\ngini = 0.35\nsamples = 1.0%\nvalue = [0.23, 0.77]", fillcolor="#399de5b4"] ;
65 -> 73 ;
74 [label="gini = 0.0\nsamples = 0.0%\nvalue = [1.0, 0.0]", fillcolor="#e58139ff"] ;
73 -> 74 ;
75 [label="sfh <= 0.0\ngini = 0.32\nsamples = 0.9%\nvalue = [0.2, 0.8]", fillcolor="#399de5c1"] ;
73 -> 75 ;
76 [label="favicon <= 0.5\ngini = 0.36\nsamples = 0.8%\nvalue = [0.24, 0.76]", fillcolor="#399de5ae"] ;
75 -> 76 ;
77 [label="gini = 0.26\nsamples = 0.1%\nvalue = [0.15, 0.85]", fillcolor="#399de5d1"] ;
76 -> 77 ;
78 [label="httpsToken <= 0.5\ngini = 0.38\nsamples = 0.7%\nvalue = [0.25, 0.75]", fillcolor="#399de5a9"] ;
76 -> 78 ;
79 [label="gini = 0.0\nsamples = 0.5%\nvalue = [0.0, 1.0]", fillcolor="#399de5ff"] ;
78 -> 79 ;
80 [label="gini = 0.26\nsamples = 0.2%\nvalue = [0.85, 0.15]", fillcolor="#e58139d1"] ;
78 -> 80 ;
81 [label="gini = 0.0\nsamples = 0.2%\nvalue = [0.0, 1.0]", fillcolor="#399de5ff"] ;
75 -> 81 ;
82 [label="gini = 0.0\nsamples = 0.5%\nvalue = [0.0, 1.0]", fillcolor="#399de5ff"] ;
6 -> 82 ;
83 [label="gini = 0.0\nsamples = 3.9%\nvalue = [0.0, 1.0]", fillcolor="#399de5ff"] ;
5 -> 83 ;
84 [label="sfh <= 0.0\ngini = 0.14\nsamples = 1.9%\nvalue = [0.08, 0.92]", fillcolor="#399de5ea"] ;
4 -> 84 ;
85 [label="httpsToken <= -0.5\ngini = 0.18\nsamples = 1.5%\nvalue = [0.1, 0.9]", fillcolor="#399de5e3"] ;
84 -> 85 ;
86 [label="favicon <= -0.5\ngini = 0.36\nsamples = 0.7%\nvalue = [0.24, 0.76]", fillcolor="#399de5b0"] ;
85 -> 86 ;
87 [label="gini = 0.0\nsamples = 0.0%\nvalue = [0.0, 1.0]", fillcolor="#399de5ff"] ;
86 -> 87 ;
88 [label="usingIPAddress <= 0.0\ngini = 0.36\nsamples = 0.7%\nvalue = [0.24, 0.76]", fillcolor="#399de5ae"] ;
86 -> 88 ;
89 [label="prefixSuffix <= -0.5\ngini = 0.42\nsamples = 0.6%\nvalue = [0.3, 0.7]", fillcolor="#399de594"] ;
88 -> 89 ;
90 [label="favicon <= 0.5\ngini = 0.5\nsamples = 0.2%\nvalue = [0.45, 0.55]", fillcolor="#399de52a"] ;
89 -> 90 ;
91 [label="gini = 0.0\nsamples = 0.0%\nvalue = [0.0, 1.0]", fillcolor="#399de5ff"] ;
90 -> 91 ;
92 [label="onMouseOver <= -0.5\ngini = 0.5\nsamples = 0.2%\nvalue = [0.53, 0.47]", fillcolor="#e5813919"] ;
90 -> 92 ;
93 [label="gini = 0.0\nsamples = 0.0%\nvalue = [0.0, 1.0]", fillcolor="#399de5ff"] ;
92 -> 93 ;
94 [label="gini = 0.44\nsamples = 0.1%\nvalue = [0.67, 0.33]", fillcolor="#e581397f"] ;
92 -> 94 ;
95 [label="havingAtSymbol <= 0.5\ngini = 0.33\nsamples = 0.4%\nvalue = [0.21, 0.79]", fillcolor="#399de5bd"] ;
89 -> 95 ;
96 [label="dnsRecord <= 0.0\ngini = 0.18\nsamples = 0.3%\nvalue = [0.1, 0.9]", fillcolor="#399de5e3"] ;
95 -> 96 ;
97 [label="onMouseOver <= -0.5\ngini = 0.19\nsamples = 0.3%\nvalue = [0.1, 0.9]", fillcolor="#399de5e2"] ;
96 -> 97 ;
98 [label="favicon <= 0.5\ngini = 0.24\nsamples = 0.2%\nvalue = [0.14, 0.86]", fillcolor="#399de5d7"] ;
97 -> 98 ;
99 [label="gini = 0.0\nsamples = 0.1%\nvalue = [0.0, 1.0]", fillcolor="#399de5ff"] ;
98 -> 99 ;
100 [label="gini = 0.32\nsamples = 0.1%\nvalue = [0.2, 0.8]", fillcolor="#399de5bf"] ;
98 -> 100 ;
101 [label="gini = 0.0\nsamples = 0.1%\nvalue = [0.0, 1.0]", fillcolor="#399de5ff"] ;
97 -> 101 ;
102 [label="gini = 0.0\nsamples = 0.0%\nvalue = [0.0, 1.0]", fillcolor="#399de5ff"] ;
96 -> 102 ;
103 [label="favicon <= 0.5\ngini = 0.49\nsamples = 0.1%\nvalue = [0.56, 0.44]", fillcolor="#e5813933"] ;
95 -> 103 ;
104 [label="gini = 0.0\nsamples = 0.1%\nvalue = [1.0, 0.0]", fillcolor="#e58139ff"] ;
103 -> 104 ;
105 [label="gini = 0.0\nsamples = 0.0%\nvalue = [0.0, 1.0]", fillcolor="#399de5ff"] ;
103 -> 105 ;
106 [label="gini = 0.0\nsamples = 0.1%\nvalue = [0.0, 1.0]", fillcolor="#399de5ff"] ;
88 -> 106 ;
107 [label="gini = 0.0\nsamples = 0.8%\nvalue = [0.0, 1.0]", fillcolor="#399de5ff"] ;
85 -> 107 ;
108 [label="gini = 0.0\nsamples = 0.4%\nvalue = [0.0, 1.0]", fillcolor="#399de5ff"] ;
84 -> 108 ;
109 [label="doubleSlashRedirecting <= 0.0\ngini = 0.12\nsamples = 24.3%\nvalue = [0.07, 0.93]", fillcolor="#399de5ed"] ;
3 -> 109 ;
110 [label="gini = 0.0\nsamples = 0.0%\nvalue = [0.0, 1.0]", fillcolor="#399de5ff"] ;
109 -> 110 ;
111 [label="httpsToken <= -0.5\ngini = 0.12\nsamples = 24.3%\nvalue = [0.07, 0.93]", fillcolor="#399de5ed"] ;
109 -> 111 ;
112 [label="onMouseOver <= -0.5\ngini = 0.16\nsamples = 9.6%\nvalue = [0.09, 0.91]", fillcolor="#399de5e7"] ;
111 -> 112 ;
113 [label="dnsRecord <= 0.0\ngini = 0.19\nsamples = 4.9%\nvalue = [0.11, 0.89]", fillcolor="#399de5e1"] ;
112 -> 113 ;
114 [label="favicon <= 0.5\ngini = 0.19\nsamples = 4.8%\nvalue = [0.11, 0.89]", fillcolor="#399de5e0"] ;
113 -> 114 ;
115 [label="sfh <= 0.0\ngini = 0.18\nsamples = 2.0%\nvalue = [0.1, 0.9]", fillcolor="#399de5e2"] ;
114 -> 115 ;
116 [label="havingAtSymbol <= -0.5\ngini = 0.46\nsamples = 0.6%\nvalue = [0.36, 0.64]", fillcolor="#399de572"] ;
115 -> 116 ;
117 [label="favicon <= -0.5\ngini = 0.47\nsamples = 0.5%\nvalue = [0.39, 0.61]", fillcolor="#399de55f"] ;
116 -> 117 ;
118 [label="gini = 0.0\nsamples = 0.0%\nvalue = [0.0, 1.0]", fillcolor="#399de5ff"] ;
117 -> 118 ;
119 [label="usingIPAddress <= 0.0\ngini = 0.48\nsamples = 0.5%\nvalue = [0.39, 0.61]", fillcolor="#399de55b"] ;
117 -> 119 ;
120 [label="prefixSuffix <= 0.0\ngini = 0.5\nsamples = 0.4%\nvalue = [0.5, 0.5]", fillcolor="#e5813900"] ;
119 -> 120 ;
121 [label="gini = 0.5\nsamples = 0.4%\nvalue = [0.54, 0.46]", fillcolor="#e5813926"] ;
120 -> 121 ;
122 [label="gini = 0.0\nsamples = 0.0%\nvalue = [0.0, 1.0]", fillcolor="#399de5ff"] ;
120 -> 122 ;
123 [label="gini = 0.0\nsamples = 0.1%\nvalue = [0.0, 1.0]", fillcolor="#399de5ff"] ;
119 -> 123 ;
124 [label="gini = 0.0\nsamples = 0.1%\nvalue = [0.0, 1.0]", fillcolor="#399de5ff"] ;
116 -> 124 ;
125 [label="gini = 0.0\nsamples = 1.4%\nvalue = [0.0, 1.0]", fillcolor="#399de5ff"] ;
115 -> 125 ;
126 [label="usingIPAddress <= 0.0\ngini = 0.2\nsamples = 2.7%\nvalue = [0.11, 0.89]", fillcolor="#399de5de"] ;
114 -> 126 ;
127 [label="sfh <= 0.0\ngini = 0.23\nsamples = 2.3%\nvalue = [0.13, 0.87]", fillcolor="#399de5d8"] ;
126 -> 127 ;
128 [label="prefixSuffix <= -0.5\ngini = 0.26\nsamples = 2.1%\nvalue = [0.15, 0.85]", fillcolor="#399de5d2"] ;
127 -> 128 ;
129 [label="havingSubDomain <= 0.0\ngini = 0.31\nsamples = 1.2%\nvalue = [0.2, 0.8]", fillcolor="#399de5c1"] ;
128 -> 129 ;
130 [label="gini = 0.0\nsamples = 0.0%\nvalue = [0.0, 1.0]", fillcolor="#399de5ff"] ;
129 -> 130 ;
131 [label="havingAtSymbol <= 0.0\ngini = 0.32\nsamples = 1.2%\nvalue = [0.2, 0.8]", fillcolor="#399de5bf"] ;
129 -> 131 ;
132 [label="gini = 0.33\nsamples = 1.1%\nvalue = [0.21, 0.79]", fillcolor="#399de5bd"] ;
131 -> 132 ;
133 [label="gini = 0.0\nsamples = 0.0%\nvalue = [0.0, 1.0]", fillcolor="#399de5ff"] ;
131 -> 133 ;
134 [label="havingAtSymbol <= -0.5\ngini = 0.17\nsamples = 0.9%\nvalue = [0.09, 0.91]", fillcolor="#399de5e5"] ;
128 -> 134 ;
135 [label="gini = 0.35\nsamples = 0.3%\nvalue = [0.22, 0.78]", fillcolor="#399de5b6"] ;
134 -> 135 ;
136 [label="gini = 0.0\nsamples = 0.5%\nvalue = [0.0, 1.0]", fillcolor="#399de5ff"] ;
134 -> 136 ;
137 [label="gini = 0.0\nsamples = 0.3%\nvalue = [0.0, 1.0]", fillcolor="#399de5ff"] ;
127 -> 137 ;
138 [label="gini = 0.0\nsamples = 0.4%\nvalue = [0.0, 1.0]", fillcolor="#399de5ff"] ;
126 -> 138 ;
139 [label="gini = 0.0\nsamples = 0.1%\nvalue = [0.0, 1.0]", fillcolor="#399de5ff"] ;
113 -> 139 ;
140 [label="usingIPAddress <= 0.0\ngini = 0.13\nsamples = 4.8%\nvalue = [0.07, 0.93]", fillcolor="#399de5ec"] ;
112 -> 140 ;
141 [label="prefixSuffix <= 0.5\ngini = 0.16\nsamples = 3.9%\nvalue = [0.09, 0.91]", fillcolor="#399de5e7"] ;
140 -> 141 ;
142 [label="dnsRecord <= 0.0\ngini = 0.13\nsamples = 3.4%\nvalue = [0.07, 0.93]", fillcolor="#399de5ec"] ;
141 -> 142 ;
143 [label="havingSubDomain <= 0.0\ngini = 0.13\nsamples = 3.4%\nvalue = [0.07, 0.93]", fillcolor="#399de5eb"] ;
142 -> 143 ;
144 [label="gini = 0.0\nsamples = 0.2%\nvalue = [0.0, 1.0]", fillcolor="#399de5ff"] ;
143 -> 144 ;
145 [label="sfh <= 0.0\ngini = 0.14\nsamples = 3.2%\nvalue = [0.08, 0.92]", fillcolor="#399de5ea"] ;
143 -> 145 ;
146 [label="havingAtSymbol <= -0.5\ngini = 0.19\nsamples = 2.2%\nvalue = [0.11, 0.89]", fillcolor="#399de5e0"] ;
145 -> 146 ;
147 [label="favicon <= 0.5\ngini = 0.23\nsamples = 1.8%\nvalue = [0.13, 0.87]", fillcolor="#399de5d9"] ;
146 -> 147 ;
148 [label="onMouseOver <= 0.5\ngini = 0.38\nsamples = 1.0%\nvalue = [0.25, 0.75]", fillcolor="#399de5a9"] ;
147 -> 148 ;
149 [label="favicon <= -0.5\ngini = 0.38\nsamples = 1.0%\nvalue = [0.26, 0.74]", fillcolor="#399de5a7"] ;
148 -> 149 ;
150 [label="gini = 0.0\nsamples = 0.0%\nvalue = [0.0, 1.0]", fillcolor="#399de5ff"] ;
149 -> 150 ;
151 [label="gini = 0.39\nsamples = 1.0%\nvalue = [0.26, 0.74]", fillcolor="#399de5a5"] ;
149 -> 151 ;
152 [label="gini = 0.0\nsamples = 0.0%\nvalue = [0.0, 1.0]", fillcolor="#399de5ff"] ;
148 -> 152 ;
153 [label="gini = 0.0\nsamples = 0.8%\nvalue = [0.0, 1.0]", fillcolor="#399de5ff"] ;
147 -> 153 ;
154 [label="gini = 0.0\nsamples = 0.4%\nvalue = [0.0, 1.0]", fillcolor="#399de5ff"] ;
146 -> 154 ;
155 [label="gini = 0.0\nsamples = 0.9%\nvalue = [0.0, 1.0]", fillcolor="#399de5ff"] ;
145 -> 155 ;
156 [label="gini = 0.0\nsamples = 0.1%\nvalue = [0.0, 1.0]", fillcolor="#399de5ff"] ;
142 -> 156 ;
157 [label="havingAtSymbol <= 0.0\ngini = 0.3\nsamples = 0.5%\nvalue = [0.19, 0.81]", fillcolor="#399de5c5"] ;
141 -> 157 ;
158 [label="favicon <= 0.5\ngini = 0.32\nsamples = 0.5%\nvalue = [0.2, 0.8]", fillcolor="#399de5c0"] ;
157 -> 158 ;
159 [label="gini = 0.0\nsamples = 0.2%\nvalue = [0.0, 1.0]", fillcolor="#399de5ff"] ;
158 -> 159 ;
160 [label="sfh <= 0.0\ngini = 0.38\nsamples = 0.3%\nvalue = [0.25, 0.75]", fillcolor="#399de5a8"] ;
158 -> 160 ;
161 [label="gini = 0.42\nsamples = 0.3%\nvalue = [0.3, 0.7]", fillcolor="#399de594"] ;
160 -> 161 ;
162 [label="gini = 0.0\nsamples = 0.0%\nvalue = [0.0, 1.0]", fillcolor="#399de5ff"] ;
160 -> 162 ;
163 [label="gini = 0.0\nsamples = 0.0%\nvalue = [0.0, 1.0]", fillcolor="#399de5ff"] ;
157 -> 163 ;
164 [label="gini = 0.0\nsamples = 0.9%\nvalue = [0.0, 1.0]", fillcolor="#399de5ff"] ;
140 -> 164 ;
165 [label="sfh <= 0.0\ngini = 0.1\nsamples = 14.6%\nvalue = [0.05, 0.95]", fillcolor="#399de5f1"] ;
111 -> 165 ;
166 [label="onMouseOver <= -0.5\ngini = 0.14\nsamples = 10.1%\nvalue = [0.07, 0.93]", fillcolor="#399de5ea"] ;
165 -> 166 ;
167 [label="dnsRecord <= 0.0\ngini = 0.03\nsamples = 1.6%\nvalue = [0.01, 0.99]", fillcolor="#399de5fb"] ;
166 -> 167 ;
168 [label="usingIPAddress <= 0.0\ngini = 0.03\nsamples = 1.6%\nvalue = [0.01, 0.99]", fillcolor="#399de5fb"] ;
167 -> 168 ;
169 [label="havingSubDomain <= 0.0\ngini = 0.03\nsamples = 1.3%\nvalue = [0.02, 0.98]", fillcolor="#399de5fb"] ;
168 -> 169 ;
170 [label="gini = 0.0\nsamples = 0.0%\nvalue = [0.0, 1.0]", fillcolor="#399de5ff"] ;
169 -> 170 ;
171 [label="httpsToken <= 0.5\ngini = 0.03\nsamples = 1.3%\nvalue = [0.02, 0.98]", fillcolor="#399de5fb"] ;
169 -> 171 ;
172 [label="gini = 0.0\nsamples = 0.5%\nvalue = [0.0, 1.0]", fillcolor="#399de5ff"] ;
171 -> 172 ;
173 [label="favicon <= 0.5\ngini = 0.05\nsamples = 0.8%\nvalue = [0.03, 0.97]", fillcolor="#399de5f8"] ;
171 -> 173 ;
174 [label="havingAtSymbol <= -0.5\ngini = 0.2\nsamples = 0.2%\nvalue = [0.12, 0.88]", fillcolor="#399de5de"] ;
173 -> 174 ;
175 [label="prefixSuffix <= 0.0\ngini = 0.29\nsamples = 0.2%\nvalue = [0.18, 0.82]", fillcolor="#399de5c8"] ;
174 -> 175 ;
176 [label="gini = 0.3\nsamples = 0.1%\nvalue = [0.19, 0.81]", fillcolor="#399de5c4"] ;
175 -> 176 ;
177 [label="gini = 0.0\nsamples = 0.0%\nvalue = [0.0, 1.0]", fillcolor="#399de5ff"] ;
175 -> 177 ;
178 [label="gini = 0.0\nsamples = 0.0%\nvalue = [0.0, 1.0]", fillcolor="#399de5ff"] ;
174 -> 178 ;
179 [label="gini = 0.0\nsamples = 0.6%\nvalue = [0.0, 1.0]", fillcolor="#399de5ff"] ;
173 -> 179 ;
180 [label="gini = 0.0\nsamples = 0.2%\nvalue = [0.0, 1.0]", fillcolor="#399de5ff"] ;
168 -> 180 ;
181 [label="gini = 0.0\nsamples = 0.0%\nvalue = [0.0, 1.0]", fillcolor="#399de5ff"] ;
167 -> 181 ;
182 [label="havingAtSymbol <= -0.5\ngini = 0.16\nsamples = 8.5%\nvalue = [0.09, 0.91]", fillcolor="#399de5e7"] ;
166 -> 182 ;
183 [label="usingIPAddress <= 0.0\ngini = 0.19\nsamples = 7.0%\nvalue = [0.1, 0.9]", fillcolor="#399de5e2"] ;
182 -> 183 ;
184 [label="httpsToken <= 0.5\ngini = 0.23\nsamples = 5.5%\nvalue = [0.13, 0.87]", fillcolor="#399de5d9"] ;
183 -> 184 ;
185 [label="favicon <= -0.5\ngini = 0.2\nsamples = 5.2%\nvalue = [0.12, 0.88]", fillcolor="#399de5de"] ;
184 -> 185 ;
186 [label="gini = 0.0\nsamples = 0.0%\nvalue = [0.0, 1.0]", fillcolor="#399de5ff"] ;
185 -> 186 ;
187 [label="dnsRecord <= 0.0\ngini = 0.21\nsamples = 5.2%\nvalue = [0.12, 0.88]", fillcolor="#399de5dd"] ;
185 -> 187 ;
188 [label="prefixSuffix <= 0.0\ngini = 0.21\nsamples = 5.1%\nvalue = [0.12, 0.88]", fillcolor="#399de5dc"] ;
187 -> 188 ;
189 [label="favicon <= 0.5\ngini = 0.21\nsamples = 4.4%\nvalue = [0.12, 0.88]", fillcolor="#399de5dc"] ;
188 -> 189 ;
190 [label="havingSubDomain <= 0.0\ngini = 0.15\nsamples = 1.9%\nvalue = [0.08, 0.92]", fillcolor="#399de5e9"] ;
189 -> 190 ;
191 [label="gini = 0.0\nsamples = 0.0%\nvalue = [0.0, 1.0]", fillcolor="#399de5ff"] ;
190 -> 191 ;
192 [label="gini = 0.15\nsamples = 1.9%\nvalue = [0.08, 0.92]", fillcolor="#399de5e8"] ;
190 -> 192 ;
193 [label="havingSubDomain <= 0.0\ngini = 0.26\nsamples = 2.5%\nvalue = [0.15, 0.85]", fillcolor="#399de5d2"] ;
189 -> 193 ;
194 [label="gini = 0.0\nsamples = 0.0%\nvalue = [0.0, 1.0]", fillcolor="#399de5ff"] ;
193 -> 194 ;
195 [label="gini = 0.26\nsamples = 2.5%\nvalue = [0.15, 0.85]", fillcolor="#399de5d1"] ;
193 -> 195 ;
196 [label="favicon <= 0.5\ngini = 0.2\nsamples = 0.6%\nvalue = [0.11, 0.89]", fillcolor="#399de5df"] ;
188 -> 196 ;
197 [label="gini = 0.41\nsamples = 0.1%\nvalue = [0.71, 0.29]", fillcolor="#e5813999"] ;
196 -> 197 ;
198 [label="gini = 0.0\nsamples = 0.5%\nvalue = [0.0, 1.0]", fillcolor="#399de5ff"] ;
196 -> 198 ;
199 [label="gini = 0.0\nsamples = 0.1%\nvalue = [0.0, 1.0]", fillcolor="#399de5ff"] ;
187 -> 199 ;
200 [label="onMouseOver <= 0.5\ngini = 0.46\nsamples = 0.3%\nvalue = [0.36, 0.64]", fillcolor="#399de56d"] ;
184 -> 200 ;
201 [label="dnsRecord <= 0.0\ngini = 0.48\nsamples = 0.3%\nvalue = [0.39, 0.61]", fillcolor="#399de55c"] ;
200 -> 201 ;
202 [label="favicon <= 0.5\ngini = 0.48\nsamples = 0.3%\nvalue = [0.4, 0.6]", fillcolor="#399de555"] ;
201 -> 202 ;
203 [label="gini = 0.0\nsamples = 0.0%\nvalue = [0.0, 1.0]", fillcolor="#399de5ff"] ;
202 -> 203 ;
204 [label="prefixSuffix <= 0.0\ngini = 0.5\nsamples = 0.2%\nvalue = [0.52, 0.48]", fillcolor="#e5813910"] ;
202 -> 204 ;
205 [label="gini = 0.48\nsamples = 0.2%\nvalue = [0.39, 0.61]", fillcolor="#399de55b"] ;
204 -> 205 ;
206 [label="gini = 0.22\nsamples = 0.0%\nvalue = [0.88, 0.12]", fillcolor="#e58139db"] ;
204 -> 206 ;
207 [label="gini = 0.0\nsamples = 0.0%\nvalue = [0.0, 1.0]", fillcolor="#399de5ff"] ;
201 -> 207 ;
208 [label="gini = 0.0\nsamples = 0.0%\nvalue = [0.0, 1.0]", fillcolor="#399de5ff"] ;
200 -> 208 ;
209 [label="gini = 0.0\nsamples = 1.5%\nvalue = [0.0, 1.0]", fillcolor="#399de5ff"] ;
183 -> 209 ;
210 [label="gini = 0.0\nsamples = 1.5%\nvalue = [0.0, 1.0]", fillcolor="#399de5ff"] ;
182 -> 210 ;
211 [label="gini = 0.0\nsamples = 4.5%\nvalue = [0.0, 1.0]", fillcolor="#399de5ff"] ;
165 -> 211 ;
212 [label="gini = 0.0\nsamples = 52.6%\nvalue = [0.0, 1.0]", fillcolor="#399de5ff"] ;
2 -> 212 ;
}