digraph Tree {
node [shape=box, style="filled, rounded", color="black", fontname=helvetica] ;
edge [fontname=helvetica] ;
0 [label="getageOfDomain <= -0.5\ngini = 0.14\nsamples = 100.0%\nvalue = [0.07, 0.93]", fillcolor="#399de5ea"] ;
1 [label="sfh <= 0.0\ngini = 0.26\nsamples = 48.7%\nvalue = [0.15, 0.85]", fillcolor="#399de5d1"] ;
0 -> 1 [labeldistance=2.5, labelangle=45, headlabel="True"] ;
2 [label="httpsToken <= -0.5\ngini = 0.32\nsamples = 36.5%\nvalue = [0.2, 0.8]", fillcolor="#399de5be"] ;
1 -> 2 ;
3 [label="urlLength <= 0.0\ngini = 0.41\nsamples = 16.4%\nvalue = [0.29, 0.71]", fillcolor="#399de596"] ;
2 -> 3 ;
4 [label="dnsRecord <= 0.0\ngini = 0.49\nsamples = 9.5%\nvalue = [0.41, 0.59]", fillcolor="#399de54a"] ;
3 -> 4 ;
5 [label="onMouseOver <= -0.5\ngini = 0.49\nsamples = 9.2%\nvalue = [0.43, 0.57]", fillcolor="#399de53f"] ;
4 -> 5 ;
6 [label="havingAtSymbol <= -0.5\ngini = 0.5\nsamples = 5.2%\nvalue = [0.54, 0.46]", fillcolor="#e5813924"] ;
5 -> 6 ;
7 [label="favicon <= 0.5\ngini = 0.49\nsamples = 4.8%\nvalue = [0.56, 0.44]", fillcolor="#e581393a"] ;
6 -> 7 ;
8 [label="prefixSuffix <= 0.0\ngini = 0.31\nsamples = 1.4%\nvalue = [0.81, 0.19]", fillcolor="#e58139c4"] ;
7 -> 8 ;
9 [label="usingIPAddress <= 0.0\ngini = 0.38\nsamples = 1.0%\nvalue = [0.74, 0.26]", fillcolor="#e58139a6"] ;
8 -> 9 ;
10 [label="favicon <= -0.5\ngini = 0.31\nsamples = 0.9%\nvalue = [0.81, 0.19]", fillcolor="#e58139c3"] ;
9 -> 10 ;
11 [label="gini = 0.41\nsamples = 0.1%\nvalue = [0.71, 0.29]", fillcolor="#e5813999"] ;
10 -> 11 ;
12 [label="gini = 0.29\nsamples = 0.8%\nvalue = [0.82, 0.18]", fillcolor="#e58139c8"] ;
10 -> 12 ;
13 [label="gini = 0.0\nsamples = 0.1%\nvalue = [0.0, 1.0]", fillcolor="#399de5ff"] ;
9 -> 13 ;
14 [label="gini = 0.04\nsamples = 0.4%\nvalue = [0.98, 0.02]", fillcolor="#e58139fa"] ;
8 -> 14 ;
15 [label="prefixSuffix <= 0.0\ngini = 0.5\nsamples = 3.4%\nvalue = [0.47, 0.53]", fillcolor="#399de51b"] ;
7 -> 15 ;
16 [label="usingIPAddress <= 0.0\ngini = 0.5\nsamples = 2.7%\nvalue = [0.45, 0.55]", fillcolor="#399de52d"] ;
15 -> 16 ;
17 [label="gini = 0.5\nsamples = 2.4%\nvalue = [0.52, 0.48]", fillcolor="#e5813916"] ;
16 -> 17 ;
18 [label="gini = 0.0\nsamples = 0.3%\nvalue = [0.0, 1.0]", fillcolor="#399de5ff"] ;
16 -> 18 ;
19 [label="usingIPAddress <= 0.0\ngini = 0.5\nsamples = 0.7%\nvalue = [0.55, 0.45]", fillcolor="#e581392d"] ;
15 -> 19 ;
20 [label="gini = 0.49\nsamples = 0.7%\nvalue = [0.55, 0.45]", fillcolor="#e5813932"] ;
19 -> 20 ;
21 [label="gini = 0.0\nsamples = 0.0%\nvalue = [0.0, 1.0]", fillcolor="#399de5ff"] ;
19 -> 21 ;
22 [label="havingAtSymbol <= 0.5\ngini = 0.41\nsamples = 0.4%\nvalue = [0.29, 0.71]", fillcolor="#399de596"] ;
6 -> 22 ;
23 [label="havingSubDomain <= 0.0\ngini = 0.24\nsamples = 0.3%\nvalue = [0.14, 0.86]", fillcolor="#399de5d6"] ;
22 -> 23 ;
24 [label="gini = 0.0\nsamples = 0.0%\nvalue = [0.0, 1.0]", fillcolor="#399de5ff"] ;
23 -> 24 ;
25 [label="favicon <= 0.5\ngini = 0.24\nsamples = 0.3%\nvalue = [0.14, 0.86]", fillcolor="#399de5d4"] ;
23 -> 25 ;
26 [label="gini = 0.0\nsamples = 0.1%\nvalue = [0.0, 1.0]", fillcolor="#399de5ff"] ;
25 -> 26 ;
27 [label="usingIPAddress <= 0.0\ngini = 0.42\nsamples = 0.2%\nvalue = [0.3, 0.7]", fillcolor="#399de592"] ;
25 -> 27 ;
28 [label="gini = 0.47\nsamples = 0.1%\nvalue = [0.38, 0.62]", fillcolor="#399de566"] ;
27 -> 28 ;
29 [label="gini = 0.0\nsamples = 0.0%\nvalue = [0.0, 1.0]", fillcolor="#399de5ff"] ;
27 -> 29 ;
30 [label="favicon <= -0.5\ngini = 0.48\nsamples = 0.2%\nvalue = [0.59, 0.41]", fillcolor="#e581394e"] ;
22 -> 30 ;
31 [label="gini = 0.0\nsamples = 0.0%\nvalue = [0.0, 1.0]", fillcolor="#399de5ff"] ;
30 -> 31 ;
32 [label="usingIPAddress <= 0.0\ngini = 0.45\nsamples = 0.2%\nvalue = [0.65, 0.35]", fillcolor="#e5813976"] ;
30 -> 32 ;
33 [label="favicon <= 0.5\ngini = 0.43\nsamples = 0.1%\nvalue = [0.68, 0.32]", fillcolor="#e5813989"] ;
32 -> 33 ;
34 [label="prefixSuffix <= 0.0\ngini = 0.34\nsamples = 0.1%\nvalue = [0.79, 0.21]", fillcolor="#e58139b9"] ;
33 -> 34 ;
35 [label="gini = 0.0\nsamples = 0.0%\nvalue = [0.0, 1.0]", fillcolor="#399de5ff"] ;
34 -> 35 ;
36 [label="gini = 0.0\nsamples = 0.1%\nvalue = [1.0, 0.0]", fillcolor="#e58139ff"] ;
34 -> 36 ;
37 [label="prefixSuffix <= 0.0\ngini = 0.48\nsamples = 0.0%\nvalue = [0.4, 0.6]", fillcolor="#399de555"] ;
33 -> 37 ;
38 [label="gini = 0.0\nsamples = 0.0%\nvalue = [0.0, 1.0]", fillcolor="#399de5ff"] ;
37 -> 38 ;
39 [label="gini = 0.0\nsamples = 0.0%\nvalue = [1.0, 0.0]", fillcolor="#e58139ff"] ;
37 -> 39 ;
40 [label="gini = 0.0\nsamples = 0.0%\nvalue = [0.0, 1.0]", fillcolor="#399de5ff"] ;
32 -> 40 ;
41 [label="onMouseOver <= 0.5\ngini = 0.41\nsamples = 3.9%\nvalue = [0.29, 0.71]", fillcolor="#399de599"] ;
5 -> 41 ;
42 [label="usingIPAddress <= 0.0\ngini = 0.39\nsamples = 3.8%\nvalue = [0.26, 0.74]", fillcolor="#399de5a5"] ;
41 -> 42 ;
43 [label="prefixSuffix <= 0.5\ngini = 0.43\nsamples = 3.1%\nvalue = [0.31, 0.69]", fillcolor="#399de58d"] ;
42 -> 43 ;
44 [label="favicon <= 0.5\ngini = 0.41\nsamples = 2.6%\nvalue = [0.28, 0.72]", fillcolor="#399de59a"] ;
43 -> 44 ;
45 [label="prefixSuffix <= -0.5\ngini = 0.29\nsamples = 1.1%\nvalue = [0.18, 0.82]", fillcolor="#399de5c9"] ;
44 -> 45 ;
46 [label="favicon <= -0.5\ngini = 0.29\nsamples = 1.1%\nvalue = [0.18, 0.82]", fillcolor="#399de5c8"] ;
45 -> 46 ;
47 [label="gini = 0.0\nsamples = 0.0%\nvalue = [0.0, 1.0]", fillcolor="#399de5ff"] ;
46 -> 47 ;
48 [label="havingAtSymbol <= -0.5\ngini = 0.3\nsamples = 1.1%\nvalue = [0.18, 0.82]", fillcolor="#399de5c6"] ;
46 -> 48 ;
49 [label="gini = 0.29\nsamples = 1.1%\nvalue = [0.18, 0.82]", fillcolor="#399de5c8"] ;
48 -> 49 ;
50 [label="havingAtSymbol <= 0.5\ngini = 0.5\nsamples = 0.0%\nvalue = [0.5, 0.5]", fillcolor="#e5813900"] ;
48 -> 50 ;
51 [label="gini = 0.0\nsamples = 0.0%\nvalue = [1.0, 0.0]", fillcolor="#e58139ff"] ;
50 -> 51 ;
52 [label="gini = 0.0\nsamples = 0.0%\nvalue = [0.0, 1.0]", fillcolor="#399de5ff"] ;
50 -> 52 ;
53 [label="gini = 0.0\nsamples = 0.0%\nvalue = [0.0, 1.0]", fillcolor="#399de5ff"] ;
45 -> 53 ;
54 [label="havingAtSymbol <= 0.5\ngini = 0.46\nsamples = 1.5%\nvalue = [0.36, 0.64]", fillcolor="#399de56e"] ;
44 -> 54 ;
55 [label="prefixSuffix <= -0.5\ngini = 0.42\nsamples = 1.3%\nvalue = [0.3, 0.7]", fillcolor="#399de590"] ;
54 -> 55 ;
56 [label="gini = 0.44\nsamples = 1.2%\nvalue = [0.33, 0.67]", fillcolor="#399de581"] ;
55 -> 56 ;
57 [label="gini = 0.0\nsamples = 0.1%\nvalue = [0.0, 1.0]", fillcolor="#399de5ff"] ;
55 -> 57 ;
58 [label="gini = 0.29\nsamples = 0.1%\nvalue = [0.83, 0.17]", fillcolor="#e58139c9"] ;
54 -> 58 ;
59 [label="favicon <= 0.5\ngini = 0.49\nsamples = 0.5%\nvalue = [0.43, 0.57]", fillcolor="#399de541"] ;
43 -> 59 ;
60 [label="gini = 0.18\nsamples = 0.2%\nvalue = [0.9, 0.1]", fillcolor="#e58139e3"] ;
59 -> 60 ;
61 [label="gini = 0.38\nsamples = 0.4%\nvalue = [0.25, 0.75]", fillcolor="#399de5a8"] ;
59 -> 61 ;
62 [label="gini = 0.0\nsamples = 0.6%\nvalue = [0.0, 1.0]", fillcolor="#399de5ff"] ;
42 -> 62 ;
63 [label="usingIPAddress <= 0.0\ngini = 0.24\nsamples = 0.2%\nvalue = [0.86, 0.14]", fillcolor="#e58139d7"] ;
41 -> 63 ;
64 [label="prefixSuffix <= 0.0\ngini = 0.09\nsamples = 0.2%\nvalue = [0.95, 0.05]", fillcolor="#e58139f2"] ;
63 -> 64 ;
65 [label="gini = 0.22\nsamples = 0.1%\nvalue = [0.88, 0.12]", fillcolor="#e58139db"] ;
64 -> 65 ;
66 [label="gini = 0.0\nsamples = 0.1%\nvalue = [1.0, 0.0]", fillcolor="#e58139ff"] ;
64 -> 66 ;
67 [label="gini = 0.0\nsamples = 0.0%\nvalue = [0.0, 1.0]", fillcolor="#399de5ff"] ;
63 -> 67 ;
68 [label="gini = 0.0\nsamples = 0.3%\nvalue = [0.0, 1.0]", fillcolor="#399de5ff"] ;
4 -> 68 ;
69 [label="popUpWindow <= 0.0\ngini = 0.22\nsamples = 7.0%\nvalue = [0.13, 0.87]", fillcolor="#399de5da"] ;
3 -> 69 ;
70 [label="havingAtSymbol <= -0.5\ngini = 0.22\nsamples = 6.9%\nvalue = [0.13, 0.87]", fillcolor="#399de5da"] ;
69 -> 70 ;
71 [label="onMouseOver <= -0.5\ngini = 0.27\nsamples = 5.3%\nvalue = [0.16, 0.84]", fillcolor="#399de5ce"] ;
70 -> 71 ;
72 [label="dnsRecord <= 0.0\ngini = 0.35\nsamples = 2.3%\nvalue = [0.22, 0.78]", fillcolor="#399de5b6"] ;
71 -> 72 ;
73 [label="havingSubDomain <= 0.0\ngini = 0.35\nsamples = 2.3%\nvalue = [0.23, 0.77]", fillcolor="#399de5b4"] ;
72 -> 73 ;
74 [label="gini = 0.0\nsamples = 0.0%\nvalue = [0.0, 1.0]", fillcolor="#399de5ff"] ;
73 -> 74 ;
75 [label="favicon <= 0.5\ngini = 0.35\nsamples = 2.3%\nvalue = [0.23, 0.77]", fillcolor="#399de5b4"] ;
73 -> 75 ;
76 [label="usingIPAddress <= 0.0\ngini = 0.42\nsamples = 0.6%\nvalue = [0.3, 0.7]", fillcolor="#399de594"] ;
75 -> 76 ;
77 [label="favicon <= -0.5\ngini = 0.47\nsamples = 0.5%\nvalue = [0.38, 0.62]", fillcolor="#399de566"] ;
76 -> 77 ;
78 [label="gini = 0.0\nsamples = 0.0%\nvalue = [0.0, 1.0]", fillcolor="#399de5ff"] ;
77 -> 78 ;
79 [label="prefixSuffix <= 0.0\ngini = 0.47\nsamples = 0.5%\nvalue = [0.38, 0.62]", fillcolor="#399de562"] ;
77 -> 79 ;
80 [label="gini = 0.5\nsamples = 0.4%\nvalue = [0.47, 0.53]", fillcolor="#399de51c"] ;
79 -> 80 ;
81 [label="gini = 0.0\nsamples = 0.1%\nvalue = [0.0, 1.0]", fillcolor="#399de5ff"] ;
79 -> 81 ;
82 [label="gini = 0.0\nsamples = 0.1%\nvalue = [0.0, 1.0]", fillcolor="#399de5ff"] ;
76 -> 82 ;
83 [label="prefixSuffix <= 0.0\ngini = 0.32\nsamples = 1.7%\nvalue = [0.2, 0.8]", fillcolor="#399de5be"] ;
75 -> 83 ;
84 [label="usingIPAddress <= 0.0\ngini = 0.28\nsamples = 1.2%\nvalue = [0.17, 0.83]", fillcolor="#399de5cb"] ;
83 -> 84 ;
85 [label="gini = 0.31\nsamples = 1.1%\nvalue = [0.19, 0.81]", fillcolor="#399de5c2"] ;
84 -> 85 ;
86 [label="gini = 0.0\nsamples = 0.2%\nvalue = [0.0, 1.0]", fillcolor="#399de5ff"] ;
84 -> 86 ;
87 [label="usingIPAddress <= 0.0\ngini = 0.43\nsamples = 0.4%\nvalue = [0.31, 0.69]", fillcolor="#399de58e"] ;
83 -> 87 ;
88 [label="gini = 0.46\nsamples = 0.4%\nvalue = [0.36, 0.64]", fillcolor="#399de56d"] ;
87 -> 88 ;
89 [label="gini = 0.0\nsamples = 0.1%\nvalue = [0.0, 1.0]", fillcolor="#399de5ff"] ;
87 -> 89 ;
90 [label="gini = 0.0\nsamples = 0.1%\nvalue = [0.0, 1.0]", fillcolor="#399de5ff"] ;
72 -> 90 ;
91 [label="usingIPAddress <= 0.0\ngini = 0.21\nsamples = 3.0%\nvalue = [0.12, 0.88]", fillcolor="#399de5dd"] ;
71 -> 91 ;
92 [label="prefixSuffix <= -0.5\ngini = 0.25\nsamples = 2.3%\nvalue = [0.15, 0.85]", fillcolor="#399de5d3"] ;
91 -> 92 ;
93 [label="onMouseOver <= 0.5\ngini = 0.22\nsamples = 1.9%\nvalue = [0.13, 0.87]", fillcolor="#399de5d9"] ;
92 -> 93 ;
94 [label="favicon <= 0.5\ngini = 0.23\nsamples = 1.9%\nvalue = [0.13, 0.87]", fillcolor="#399de5d8"] ;
93 -> 94 ;
95 [label="favicon <= -0.5\ngini = 0.36\nsamples = 1.0%\nvalue = [0.23, 0.77]", fillcolor="#399de5b1"] ;
94 -> 95 ;
96 [label="gini = 0.0\nsamples = 0.0%\nvalue = [0.0, 1.0]", fillcolor="#399de5ff"] ;
95 -> 96 ;
97 [label="gini = 0.36\nsamples = 1.0%\nvalue = [0.24, 0.76]", fillcolor="#399de5af"] ;
95 -> 97 ;
98 [label="gini = 0.0\nsamples = 0.9%\nvalue = [0.0, 1.0]", fillcolor="#399de5ff"] ;
94 -> 98 ;
99 [label="gini = 0.0\nsamples = 0.0%\nvalue = [0.0, 1.0]", fillcolor="#399de5ff"] ;
93 -> 99 ;
100 [label="prefixSuffix <= 0.5\ngini = 0.35\nsamples = 0.5%\nvalue = [0.23, 0.77]", fillcolor="#399de5b3"] ;
92 -> 100 ;
101 [label="gini = 0.0\nsamples = 0.0%\nvalue = [1.0, 0.0]", fillcolor="#e58139ff"] ;
100 -> 101 ;
102 [label="favicon <= 0.5\ngini = 0.32\nsamples = 0.4%\nvalue = [0.2, 0.8]", fillcolor="#399de5be"] ;
100 -> 102 ;
103 [label="gini = 0.0\nsamples = 0.1%\nvalue = [0.0, 1.0]", fillcolor="#399de5ff"] ;
102 -> 103 ;
104 [label="gini = 0.39\nsamples = 0.4%\nvalue = [0.26, 0.74]", fillcolor="#399de5a5"] ;
102 -> 104 ;
105 [label="gini = 0.0\nsamples = 0.7%\nvalue = [0.0, 1.0]", fillcolor="#399de5ff"] ;
91 -> 105 ;
106 [label="gini = 0.0\nsamples = 1.6%\nvalue = [0.0, 1.0]", fillcolor="#399de5ff"] ;
70 -> 106 ;
107 [label="gini = 0.0\nsamples = 0.0%\nvalue = [0.0, 1.0]", fillcolor="#399de5ff"] ;
69 -> 107 ;
108 [label="onMouseOver <= -0.5\ngini = 0.23\nsamples = 20.1%\nvalue = [0.13, 0.87]", fillcolor="#399de5d8"] ;
2 -> 108 ;
109 [label="havingAtSymbol <= -0.5\ngini = 0.33\nsamples = 3.9%\nvalue = [0.21, 0.79]", fillcolor="#399de5bd"] ;
108 -> 109 ;
110 [label="havingSubDomain <= 0.0\ngini = 0.37\nsamples = 3.4%\nvalue = [0.24, 0.76]", fillcolor="#399de5ae"] ;
109 -> 110 ;
111 [label="gini = 0.0\nsamples = 0.0%\nvalue = [0.0, 1.0]", fillcolor="#399de5ff"] ;
110 -> 111 ;
112 [label="favicon <= 0.5\ngini = 0.37\nsamples = 3.3%\nvalue = [0.24, 0.76]", fillcolor="#399de5ad"] ;
110 -> 112 ;
113 [label="favicon <= -0.5\ngini = 0.5\nsamples = 0.9%\nvalue = [0.53, 0.47]", fillcolor="#e5813921"] ;
112 -> 113 ;
114 [label="gini = 0.0\nsamples = 0.0%\nvalue = [0.0, 1.0]", fillcolor="#399de5ff"] ;
113 -> 114 ;
115 [label="dnsRecord <= 0.0\ngini = 0.5\nsamples = 0.9%\nvalue = [0.54, 0.46]", fillcolor="#e5813925"] ;
113 -> 115 ;
116 [label="prefixSuffix <= 0.0\ngini = 0.5\nsamples = 0.9%\nvalue = [0.55, 0.45]", fillcolor="#e581392d"] ;
115 -> 116 ;
117 [label="httpsToken <= 0.5\ngini = 0.5\nsamples = 0.8%\nvalue = [0.52, 0.48]", fillcolor="#e5813918"] ;
116 -> 117 ;
118 [label="gini = 0.0\nsamples = 0.1%\nvalue = [0.0, 1.0]", fillcolor="#399de5ff"] ;
117 -> 118 ;
119 [label="usingIPAddress <= 0.0\ngini = 0.48\nsamples = 0.7%\nvalue = [0.6, 0.4]", fillcolor="#e5813955"] ;
117 -> 119 ;
120 [label="urlLength <= 0.0\ngini = 0.45\nsamples = 0.6%\nvalue = [0.65, 0.35]", fillcolor="#e5813976"] ;
119 -> 120 ;
121 [label="gini = 0.34\nsamples = 0.4%\nvalue = [0.79, 0.21]", fillcolor="#e58139b9"] ;
120 -> 121 ;
122 [label="gini = 0.47\nsamples = 0.2%\nvalue = [0.37, 0.63]", fillcolor="#399de569"] ;
120 -> 122 ;
123 [label="gini = 0.0\nsamples = 0.0%\nvalue = [0.0, 1.0]", fillcolor="#399de5ff"] ;
119 -> 123 ;
124 [label="httpsToken <= 0.5\ngini = 0.32\nsamples = 0.1%\nvalue = [0.8, 0.2]", fillcolor="#e58139bf"] ;
116 -> 124 ;
125 [label="usingIPAddress <= 0.0\ngini = 0.44\nsamples = 0.0%\nvalue = [0.67, 0.33]", fillcolor="#e581397f"] ;
124 -> 125 ;
126 [label="gini = 0.0\nsamples = 0.0%\nvalue = [1.0, 0.0]", fillcolor="#e58139ff"] ;
125 -> 126 ;
127 [label="gini = 0.0\nsamples = 0.0%\nvalue = [0.0, 1.0]", fillcolor="#399de5ff"] ;
125 -> 127 ;
128 [label="gini = 0.24\nsamples = 0.1%\nvalue = [0.86, 0.14]", fillcolor="#e58139d4"] ;
124 -> 128 ;
129 [label="gini = 0.0\nsamples = 0.0%\nvalue = [0.0, 1.0]", fillcolor="#399de5ff"] ;
115 -> 129 ;
130 [label="httpsToken <= 0.5\ngini = 0.23\nsamples = 2.4%\nvalue = [0.14, 0.86]", fillcolor="#399de5d7"] ;
112 -> 130 ;
131 [label="gini = 0.0\nsamples = 0.8%\nvalue = [0.0, 1.0]", fillcolor="#399de5ff"] ;
130 -> 131 ;
132 [label="doubleSlashRedirecting <= 0.0\ngini = 0.32\nsamples = 1.6%\nvalue = [0.2, 0.8]", fillcolor="#399de5c0"] ;
130 -> 132 ;
133 [label="gini = 0.0\nsamples = 0.0%\nvalue = [0.0, 1.0]", fillcolor="#399de5ff"] ;
132 -> 133 ;
134 [label="urlLength <= 0.0\ngini = 0.32\nsamples = 1.6%\nvalue = [0.2, 0.8]", fillcolor="#399de5be"] ;
132 -> 134 ;
135 [label="usingIPAddress <= 0.0\ngini = 0.42\nsamples = 1.1%\nvalue = [0.3, 0.7]", fillcolor="#399de593"] ;
134 -> 135 ;
136 [label="prefixSuffix <= 0.0\ngini = 0.47\nsamples = 0.8%\nvalue = [0.38, 0.62]", fillcolor="#399de564"] ;
135 -> 136 ;
137 [label="dnsRecord <= 0.0\ngini = 0.49\nsamples = 0.8%\nvalue = [0.42, 0.58]", fillcolor="#399de543"] ;
136 -> 137 ;
138 [label="gini = 0.5\nsamples = 0.6%\nvalue = [0.48, 0.52]", fillcolor="#399de516"] ;
137 -> 138 ;
139 [label="gini = 0.0\nsamples = 0.1%\nvalue = [0.0, 1.0]", fillcolor="#399de5ff"] ;
137 -> 139 ;
140 [label="gini = 0.0\nsamples = 0.1%\nvalue = [0.0, 1.0]", fillcolor="#399de5ff"] ;
136 -> 140 ;
141 [label="gini = 0.0\nsamples = 0.2%\nvalue = [0.0, 1.0]", fillcolor="#399de5ff"] ;
135 -> 141 ;
142 [label="gini = 0.0\nsamples = 0.5%\nvalue = [0.0, 1.0]", fillcolor="#399de5ff"] ;
134 -> 142 ;
143 [label="gini = 0.0\nsamples = 0.6%\nvalue = [0.0, 1.0]", fillcolor="#399de5ff"] ;
109 -> 143 ;
144 [label="prefixSuffix <= -0.5\ngini = 0.2\nsamples = 16.1%\nvalue = [0.11, 0.89]", fillcolor="#399de5de"] ;
108 -> 144 ;
145 [label="httpsToken <= 0.5\ngini = 0.23\nsamples = 12.4%\nvalue = [0.13, 0.87]", fillcolor="#399de5d9"] ;
144 -> 145 ;
146 [label="havingSubDomain <= 0.0\ngini = 0.18\nsamples = 11.4%\nvalue = [0.1, 0.9]", fillcolor="#399de5e2"] ;
145 -> 146 ;
147 [label="gini = 0.0\nsamples = 0.0%\nvalue = [0.0, 1.0]", fillcolor="#399de5ff"] ;
146 -> 147 ;
148 [label="dnsRecord <= 0.0\ngini = 0.18\nsamples = 11.3%\nvalue = [0.1, 0.9]", fillcolor="#399de5e2"] ;
146 -> 148 ;
149 [label="favicon <= -0.5\ngini = 0.19\nsamples = 11.1%\nvalue = [0.1, 0.9]", fillcolor="#399de5e1"] ;
148 -> 149 ;
150 [label="gini = 0.0\nsamples = 0.0%\nvalue = [0.0, 1.0]", fillcolor="#399de5ff"] ;
149 -> 150 ;
151 [label="urlLength <= 0.0\ngini = 0.19\nsamples = 11.1%\nvalue = [0.1, 0.9]", fillcolor="#399de5e1"] ;
149 -> 151 ;
152 [label="usingIPAddress <= 0.0\ngini = 0.22\nsamples = 5.4%\nvalue = [0.13, 0.87]", fillcolor="#399de5da"] ;
151 -> 152 ;
153 [label="doubleSlashRedirecting <= 0.0\ngini = 0.27\nsamples = 4.3%\nvalue = [0.16, 0.84]", fillcolor="#399de5cf"] ;
152 -> 153 ;
154 [label="gini = 0.0\nsamples = 0.0%\nvalue = [0.0, 1.0]", fillcolor="#399de5ff"] ;
153 -> 154 ;
155 [label="favicon <= 0.5\ngini = 0.27\nsamples = 4.3%\nvalue = [0.16, 0.84]", fillcolor="#399de5cf"] ;
153 -> 155 ;
156 [label="gini = 0.34\nsamples = 1.8%\nvalue = [0.22, 0.78]", fillcolor="#399de5b7"] ;
155 -> 156 ;
157 [label="onMouseOver <= 0.5\ngini = 0.2\nsamples = 2.5%\nvalue = [0.12, 0.88]", fillcolor="#399de5de"] ;
155 -> 157 ;
158 [label="havingAtSymbol <= 0.0\ngini = 0.21\nsamples = 2.5%\nvalue = [0.12, 0.88]", fillcolor="#399de5dd"] ;
157 -> 158 ;
159 [label="gini = 0.21\nsamples = 2.4%\nvalue = [0.12, 0.88]", fillcolor="#399de5dd"] ;
158 -> 159 ;
160 [label="gini = 0.0\nsamples = 0.0%\nvalue = [0.0, 1.0]", fillcolor="#399de5ff"] ;
158 -> 160 ;
161 [label="gini = 0.0\nsamples = 0.0%\nvalue = [0.0, 1.0]", fillcolor="#399de5ff"] ;
157 -> 161 ;
162 [label="gini = 0.0\nsamples = 1.1%\nvalue = [0.0, 1.0]", fillcolor="#399de5ff"] ;
152 -> 162 ;
163 [label="usingIPAddress <= 0.0\ngini = 0.16\nsamples = 5.7%\nvalue = [0.08, 0.92]", fillcolor="#399de5e7"] ;
151 -> 163 ;
164 [label="havingAtSymbol <= 0.0\ngini = 0.19\nsamples = 4.5%\nvalue = [0.11, 0.89]", fillcolor="#399de5e0"] ;
163 -> 164 ;
165 [label="favicon <= 0.5\ngini = 0.19\nsamples = 4.4%\nvalue = [0.11, 0.89]", fillcolor="#399de5e0"] ;
164 -> 165 ;
166 [label="onMouseOver <= 0.5\ngini = 0.1\nsamples = 1.8%\nvalue = [0.05, 0.95]", fillcolor="#399de5f0"] ;
165 -> 166 ;
167 [label="gini = 0.1\nsamples = 1.7%\nvalue = [0.05, 0.95]", fillcolor="#399de5f0"] ;
166 -> 167 ;
168 [label="gini = 0.0\nsamples = 0.0%\nvalue = [0.0, 1.0]", fillcolor="#399de5ff"] ;
166 -> 168 ;
169 [label="onMouseOver <= 0.5\ngini = 0.25\nsamples = 2.7%\nvalue = [0.15, 0.85]", fillcolor="#399de5d4"] ;
165 -> 169 ;
170 [label="gini = 0.25\nsamples = 2.6%\nvalue = [0.15, 0.85]", fillcolor="#399de5d3"] ;
169 -> 170 ;
171 [label="gini = 0.0\nsamples = 0.0%\nvalue = [0.0, 1.0]", fillcolor="#399de5ff"] ;
169 -> 171 ;
172 [label="gini = 0.0\nsamples = 0.1%\nvalue = [0.0, 1.0]", fillcolor="#399de5ff"] ;
164 -> 172 ;
173 [label="gini = 0.0\nsamples = 1.2%\nvalue = [0.0, 1.0]", fillcolor="#399de5ff"] ;
163 -> 173 ;
174 [label="gini = 0.0\nsamples = 0.2%\nvalue = [0.0, 1.0]", fillcolor="#399de5ff"] ;
148 -> 174 ;
175 [label="urlLength <= 0.0\ngini = 0.5\nsamples = 1.0%\nvalue = [0.45, 0.55]", fillcolor="#399de52a"] ;
145 -> 175 ;
176 [label="favicon <= 0.5\ngini = 0.42\nsamples = 0.6%\nvalue = [0.69, 0.31]", fillcolor="#e581398f"] ;
175 -> 176 ;
177 [label="usingIPAddress <= 0.0\ngini = 0.38\nsamples = 0.3%\nvalue = [0.75, 0.25]", fillcolor="#e58139aa"] ;
176 -> 177 ;
178 [label="gini = 0.24\nsamples = 0.2%\nvalue = [0.86, 0.14]", fillcolor="#e58139d4"] ;
177 -> 178 ;
179 [label="gini = 0.0\nsamples = 0.0%\nvalue = [0.0, 1.0]", fillcolor="#399de5ff"] ;
177 -> 179 ;
180 [label="usingIPAddress <= 0.0\ngini = 0.45\nsamples = 0.3%\nvalue = [0.65, 0.35]", fillcolor="#e5813976"] ;
176 -> 180 ;
181 [label="onMouseOver <= 0.5\ngini = 0.42\nsamples = 0.3%\nvalue = [0.7, 0.3]", fillcolor="#e5813993"] ;
180 -> 181 ;
182 [label="gini = 0.38\nsamples = 0.3%\nvalue = [0.74, 0.26]", fillcolor="#e58139a7"] ;
181 -> 182 ;
183 [label="gini = 0.0\nsamples = 0.0%\nvalue = [0.0, 1.0]", fillcolor="#399de5ff"] ;
181 -> 183 ;
184 [label="gini = 0.0\nsamples = 0.0%\nvalue = [0.0, 1.0]", fillcolor="#399de5ff"] ;
180 -> 184 ;
185 [label="usingIPAddress <= 0.0\ngini = 0.28\nsamples = 0.4%\nvalue = [0.17, 0.83]", fillcolor="#399de5cc"] ;
175 -> 185 ;
186 [label="dnsRecord <= 0.0\ngini = 0.36\nsamples = 0.3%\nvalue = [0.23, 0.77]", fillcolor="#399de5b2"] ;
185 -> 186 ;
187 [label="havingAtSymbol <= 0.0\ngini = 0.37\nsamples = 0.3%\nvalue = [0.24, 0.76]", fillcolor="#399de5ad"] ;
186 -> 187 ;
188 [label="onMouseOver <= 0.5\ngini = 0.41\nsamples = 0.2%\nvalue = [0.29, 0.71]", fillcolor="#399de599"] ;
187 -> 188 ;
189 [label="favicon <= 0.5\ngini = 0.47\nsamples = 0.2%\nvalue = [0.37, 0.63]", fillcolor="#399de569"] ;
188 -> 189 ;
190 [label="gini = 0.0\nsamples = 0.0%\nvalue = [0.0, 1.0]", fillcolor="#399de5ff"] ;
189 -> 190 ;
191 [label="gini = 0.48\nsamples = 0.2%\nvalue = [0.4, 0.6]", fillcolor="#399de555"] ;
189 -> 191 ;
192 [label="gini = 0.0\nsamples = 0.1%\nvalue = [0.0, 1.0]", fillcolor="#399de5ff"] ;
188 -> 192 ;
193 [label="gini = 0.0\nsamples = 0.0%\nvalue = [0.0, 1.0]", fillcolor="#399de5ff"] ;
187 -> 193 ;
194 [label="gini = 0.0\nsamples = 0.0%\nvalue = [0.0, 1.0]", fillcolor="#399de5ff"] ;
186 -> 194 ;
195 [label="gini = 0.0\nsamples = 0.1%\nvalue = [0.0, 1.0]", fillcolor="#399de5ff"] ;
185 -> 195 ;
196 [label="havingSubDomain <= 0.0\ngini = 0.12\nsamples = 3.8%\nvalue = [0.07, 0.93]", fillcolor="#399de5ed"] ;
144 -> 196 ;
197 [label="gini = 0.0\nsamples = 0.0%\nvalue = [0.0, 1.0]", fillcolor="#399de5ff"] ;
196 -> 197 ;
198 [label="favicon <= -0.5\ngini = 0.12\nsamples = 3.7%\nvalue = [0.07, 0.93]", fillcolor="#399de5ed"] ;
196 -> 198 ;
199 [label="gini = 0.0\nsamples = 0.0%\nvalue = [1.0, 0.0]", fillcolor="#e58139ff"] ;
198 -> 199 ;
200 [label="havingAtSymbol <= -0.5\ngini = 0.11\nsamples = 3.7%\nvalue = [0.06, 0.94]", fillcolor="#399de5ef"] ;
198 -> 200 ;
201 [label="dnsRecord <= 0.0\ngini = 0.2\nsamples = 1.9%\nvalue = [0.11, 0.89]", fillcolor="#399de5df"] ;
200 -> 201 ;
202 [label="usingIPAddress <= 0.0\ngini = 0.2\nsamples = 1.9%\nvalue = [0.11, 0.89]", fillcolor="#399de5de"] ;
201 -> 202 ;
203 [label="urlLength <= 0.0\ngini = 0.25\nsamples = 1.5%\nvalue = [0.15, 0.85]", fillcolor="#399de5d3"] ;
202 -> 203 ;
204 [label="httpsToken <= 0.5\ngini = 0.25\nsamples = 0.8%\nvalue = [0.15, 0.85]", fillcolor="#399de5d2"] ;
203 -> 204 ;
205 [label="favicon <= 0.5\ngini = 0.02\nsamples = 0.7%\nvalue = [0.01, 0.99]", fillcolor="#399de5fc"] ;
204 -> 205 ;
206 [label="gini = 0.0\nsamples = 0.1%\nvalue = [0.0, 1.0]", fillcolor="#399de5ff"] ;
205 -> 206 ;
207 [label="gini = 0.02\nsamples = 0.6%\nvalue = [0.01, 0.99]", fillcolor="#399de5fc"] ;
205 -> 207 ;
208 [label="favicon <= 0.5\ngini = 0.1\nsamples = 0.1%\nvalue = [0.94, 0.06]", fillcolor="#e58139f0"] ;
204 -> 208 ;
209 [label="gini = 0.0\nsamples = 0.0%\nvalue = [1.0, 0.0]", fillcolor="#e58139ff"] ;
208 -> 209 ;
210 [label="gini = 0.12\nsamples = 0.1%\nvalue = [0.93, 0.07]", fillcolor="#e58139ed"] ;
208 -> 210 ;
211 [label="favicon <= 0.5\ngini = 0.25\nsamples = 0.6%\nvalue = [0.15, 0.85]", fillcolor="#399de5d3"] ;
203 -> 211 ;
212 [label="gini = 0.2\nsamples = 0.1%\nvalue = [0.89, 0.11]", fillcolor="#e58139df"] ;
211 -> 212 ;
213 [label="httpsToken <= 0.5\ngini = 0.12\nsamples = 0.6%\nvalue = [0.06, 0.94]", fillcolor="#399de5ee"] ;
211 -> 213 ;
214 [label="gini = 0.0\nsamples = 0.5%\nvalue = [0.0, 1.0]", fillcolor="#399de5ff"] ;
213 -> 214 ;
215 [label="gini = 0.0\nsamples = 0.0%\nvalue = [1.0, 0.0]", fillcolor="#e58139ff"] ;
213 -> 215 ;
216 [label="gini = 0.0\nsamples = 0.4%\nvalue = [0.0, 1.0]", fillcolor="#399de5ff"] ;
202 -> 216 ;
217 [label="gini = 0.0\nsamples = 0.0%\nvalue = [0.0, 1.0]", fillcolor="#399de5ff"] ;
201 -> 217 ;
218 [label="gini = 0.0\nsamples = 1.8%\nvalue = [0.0, 1.0]", fillcolor="#399de5ff"] ;
200 -> 218 ;
219 [label="gini = 0.0\nsamples = 12.2%\nvalue = [0.0, 1.0]", fillcolor="#399de5ff"] ;
1 -> 219 ;
220 [label="gini = 0.0\nsamples = 51.3%\nvalue = [0.0, 1.0]", fillcolor="#399de5ff"] ;
0 -> 220 [labeldistance=2.5, labelangle=-45, headlabel="False"] ;
}