digraph Tree {
node [shape=box, style="filled, rounded", color="black", fontname=helvetica] ;
edge [fontname=helvetica] ;
0 [label="httpsToken <= -0.5\ngini = 0.14\nsamples = 100.0%\nvalue = [0.08, 0.92]", fillcolor="#399de5ea"] ;
1 [label="favicon <= 0.5\ngini = 0.22\nsamples = 37.0%\nvalue = [0.13, 0.87]", fillcolor="#399de5da"] ;
0 -> 1 [labeldistance=2.5, labelangle=45, headlabel="True"] ;
2 [label="getageOfDomain <= -0.5\ngini = 0.26\nsamples = 12.9%\nvalue = [0.15, 0.85]", fillcolor="#399de5d1"] ;
1 -> 2 ;
3 [label="dnsRecord <= 0.0\ngini = 0.37\nsamples = 8.0%\nvalue = [0.25, 0.75]", fillcolor="#399de5aa"] ;
2 -> 3 ;
4 [label="sfh <= 0.0\ngini = 0.38\nsamples = 7.8%\nvalue = [0.26, 0.74]", fillcolor="#399de5a7"] ;
3 -> 4 ;
5 [label="prefixSuffix <= 0.5\ngini = 0.46\nsamples = 5.6%\nvalue = [0.35, 0.65]", fillcolor="#399de574"] ;
4 -> 5 ;
6 [label="urlLength <= 0.0\ngini = 0.42\nsamples = 4.7%\nvalue = [0.31, 0.69]", fillcolor="#399de58f"] ;
5 -> 6 ;
7 [label="usingIPAddress <= 0.0\ngini = 0.49\nsamples = 2.4%\nvalue = [0.43, 0.57]", fillcolor="#399de53b"] ;
6 -> 7 ;
8 [label="havingSubDomain <= 0.0\ngini = 0.5\nsamples = 2.2%\nvalue = [0.49, 0.51]", fillcolor="#399de50d"] ;
7 -> 8 ;
9 [label="gini = 0.0\nsamples = 0.0%\nvalue = [0.0, 1.0]", fillcolor="#399de5ff"] ;
8 -> 9 ;
10 [label="prefixSuffix <= -0.5\ngini = 0.5\nsamples = 2.2%\nvalue = [0.49, 0.51]", fillcolor="#399de50c"] ;
8 -> 10 ;
11 [label="onMouseOver <= -0.5\ngini = 0.5\nsamples = 2.1%\nvalue = [0.51, 0.49]", fillcolor="#e5813905"] ;
10 -> 11 ;
12 [label="havingAtSymbol <= 0.0\ngini = 0.32\nsamples = 0.9%\nvalue = [0.8, 0.2]", fillcolor="#e58139c0"] ;
11 -> 12 ;
13 [label="favicon <= -0.5\ngini = 0.29\nsamples = 0.9%\nvalue = [0.82, 0.18]", fillcolor="#e58139c8"] ;
12 -> 13 ;
14 [label="gini = 0.44\nsamples = 0.1%\nvalue = [0.67, 0.33]", fillcolor="#e581397f"] ;
13 -> 14 ;
15 [label="gini = 0.25\nsamples = 0.8%\nvalue = [0.85, 0.15]", fillcolor="#e58139d4"] ;
13 -> 15 ;
16 [label="gini = 0.0\nsamples = 0.0%\nvalue = [0.0, 1.0]", fillcolor="#399de5ff"] ;
12 -> 16 ;
17 [label="havingAtSymbol <= -0.5\ngini = 0.39\nsamples = 1.2%\nvalue = [0.27, 0.73]", fillcolor="#399de5a1"] ;
11 -> 17 ;
18 [label="gini = 0.39\nsamples = 1.2%\nvalue = [0.26, 0.74]", fillcolor="#399de5a5"] ;
17 -> 18 ;
19 [label="havingAtSymbol <= 0.5\ngini = 0.44\nsamples = 0.0%\nvalue = [0.67, 0.33]", fillcolor="#e581397f"] ;
17 -> 19 ;
20 [label="gini = 0.0\nsamples = 0.0%\nvalue = [1.0, 0.0]", fillcolor="#e58139ff"] ;
19 -> 20 ;
21 [label="gini = 0.0\nsamples = 0.0%\nvalue = [0.0, 1.0]", fillcolor="#399de5ff"] ;
19 -> 21 ;
22 [label="gini = 0.0\nsamples = 0.1%\nvalue = [0.0, 1.0]", fillcolor="#399de5ff"] ;
10 -> 22 ;
23 [label="gini = 0.0\nsamples = 0.2%\nvalue = [0.0, 1.0]", fillcolor="#399de5ff"] ;
7 -> 23 ;
24 [label="usingIPAddress <= 0.0\ngini = 0.28\nsamples = 2.3%\nvalue = [0.17, 0.83]", fillcolor="#399de5cc"] ;
6 -> 24 ;
25 [label="prefixSuffix <= -0.5\ngini = 0.33\nsamples = 1.8%\nvalue = [0.21, 0.79]", fillcolor="#399de5bc"] ;
24 -> 25 ;
26 [label="onMouseOver <= -0.5\ngini = 0.41\nsamples = 1.3%\nvalue = [0.29, 0.71]", fillcolor="#399de597"] ;
25 -> 26 ;
27 [label="favicon <= -0.5\ngini = 0.5\nsamples = 0.4%\nvalue = [0.52, 0.48]", fillcolor="#e5813914"] ;
26 -> 27 ;
28 [label="gini = 0.0\nsamples = 0.0%\nvalue = [0.0, 1.0]", fillcolor="#399de5ff"] ;
27 -> 28 ;
29 [label="gini = 0.49\nsamples = 0.4%\nvalue = [0.55, 0.45]", fillcolor="#e5813931"] ;
27 -> 29 ;
30 [label="favicon <= -0.5\ngini = 0.32\nsamples = 0.9%\nvalue = [0.2, 0.8]", fillcolor="#399de5c0"] ;
26 -> 30 ;
31 [label="gini = 0.0\nsamples = 0.0%\nvalue = [0.0, 1.0]", fillcolor="#399de5ff"] ;
30 -> 31 ;
32 [label="onMouseOver <= 0.5\ngini = 0.32\nsamples = 0.9%\nvalue = [0.2, 0.8]", fillcolor="#399de5bf"] ;
30 -> 32 ;
33 [label="gini = 0.32\nsamples = 0.9%\nvalue = [0.2, 0.8]", fillcolor="#399de5bf"] ;
32 -> 33 ;
34 [label="gini = 0.0\nsamples = 0.0%\nvalue = [0.0, 1.0]", fillcolor="#399de5ff"] ;
32 -> 34 ;
35 [label="gini = 0.0\nsamples = 0.4%\nvalue = [0.0, 1.0]", fillcolor="#399de5ff"] ;
25 -> 35 ;
36 [label="gini = 0.0\nsamples = 0.5%\nvalue = [0.0, 1.0]", fillcolor="#399de5ff"] ;
24 -> 36 ;
37 [label="urlLength <= 0.0\ngini = 0.47\nsamples = 0.9%\nvalue = [0.62, 0.38]", fillcolor="#e5813961"] ;
5 -> 37 ;
38 [label="havingAtSymbol <= 0.0\ngini = 0.33\nsamples = 0.7%\nvalue = [0.79, 0.21]", fillcolor="#e58139bb"] ;
37 -> 38 ;
39 [label="onMouseOver <= -0.5\ngini = 0.32\nsamples = 0.6%\nvalue = [0.8, 0.2]", fillcolor="#e58139c0"] ;
38 -> 39 ;
40 [label="usingIPAddress <= 0.0\ngini = 0.35\nsamples = 0.4%\nvalue = [0.78, 0.22]", fillcolor="#e58139b5"] ;
39 -> 40 ;
41 [label="gini = 0.33\nsamples = 0.4%\nvalue = [0.79, 0.21]", fillcolor="#e58139bc"] ;
40 -> 41 ;
42 [label="gini = 0.0\nsamples = 0.0%\nvalue = [0.0, 1.0]", fillcolor="#399de5ff"] ;
40 -> 42 ;
43 [label="usingIPAddress <= 0.0\ngini = 0.24\nsamples = 0.2%\nvalue = [0.86, 0.14]", fillcolor="#e58139d7"] ;
39 -> 43 ;
44 [label="gini = 0.17\nsamples = 0.2%\nvalue = [0.9, 0.1]", fillcolor="#e58139e4"] ;
43 -> 44 ;
45 [label="gini = 0.0\nsamples = 0.0%\nvalue = [0.0, 1.0]", fillcolor="#399de5ff"] ;
43 -> 45 ;
46 [label="usingIPAddress <= 0.0\ngini = 0.39\nsamples = 0.1%\nvalue = [0.74, 0.26]", fillcolor="#e58139a4"] ;
38 -> 46 ;
47 [label="favicon <= -0.5\ngini = 0.35\nsamples = 0.1%\nvalue = [0.78, 0.22]", fillcolor="#e58139b6"] ;
46 -> 47 ;
48 [label="gini = 0.0\nsamples = 0.0%\nvalue = [0.0, 1.0]", fillcolor="#399de5ff"] ;
47 -> 48 ;
49 [label="gini = 0.0\nsamples = 0.1%\nvalue = [1.0, 0.0]", fillcolor="#e58139ff"] ;
47 -> 49 ;
50 [label="gini = 0.0\nsamples = 0.0%\nvalue = [0.0, 1.0]", fillcolor="#399de5ff"] ;
46 -> 50 ;
51 [label="gini = 0.0\nsamples = 0.2%\nvalue = [0.0, 1.0]", fillcolor="#399de5ff"] ;
37 -> 51 ;
52 [label="gini = 0.0\nsamples = 2.2%\nvalue = [0.0, 1.0]", fillcolor="#399de5ff"] ;
4 -> 52 ;
53 [label="gini = 0.0\nsamples = 0.2%\nvalue = [0.0, 1.0]", fillcolor="#399de5ff"] ;
3 -> 53 ;
54 [label="gini = 0.0\nsamples = 4.9%\nvalue = [0.0, 1.0]", fillcolor="#399de5ff"] ;
2 -> 54 ;
55 [label="havingSubDomain <= 0.0\ngini = 0.2\nsamples = 24.1%\nvalue = [0.11, 0.89]", fillcolor="#399de5de"] ;
1 -> 55 ;
56 [label="gini = 0.0\nsamples = 0.1%\nvalue = [0.0, 1.0]", fillcolor="#399de5ff"] ;
55 -> 56 ;
57 [label="usingIPAddress <= 0.0\ngini = 0.2\nsamples = 24.0%\nvalue = [0.11, 0.89]", fillcolor="#399de5de"] ;
55 -> 57 ;
58 [label="onMouseOver <= 0.5\ngini = 0.27\nsamples = 17.4%\nvalue = [0.16, 0.84]", fillcolor="#399de5cf"] ;
57 -> 58 ;
59 [label="prefixSuffix <= 0.5\ngini = 0.25\nsamples = 17.0%\nvalue = [0.15, 0.85]", fillcolor="#399de5d3"] ;
58 -> 59 ;
60 [label="getageOfDomain <= -0.5\ngini = 0.23\nsamples = 13.4%\nvalue = [0.13, 0.87]", fillcolor="#399de5d8"] ;
59 -> 60 ;
61 [label="prefixSuffix <= -0.5\ngini = 0.33\nsamples = 8.4%\nvalue = [0.21, 0.79]", fillcolor="#399de5bd"] ;
60 -> 61 ;
62 [label="urlLength <= 0.0\ngini = 0.35\nsamples = 7.6%\nvalue = [0.22, 0.78]", fillcolor="#399de5b5"] ;
61 -> 62 ;
63 [label="havingAtSymbol <= 0.0\ngini = 0.43\nsamples = 4.7%\nvalue = [0.31, 0.69]", fillcolor="#399de58a"] ;
62 -> 63 ;
64 [label="dnsRecord <= 0.0\ngini = 0.42\nsamples = 4.5%\nvalue = [0.3, 0.7]", fillcolor="#399de590"] ;
63 -> 64 ;
65 [label="onMouseOver <= -0.5\ngini = 0.43\nsamples = 4.5%\nvalue = [0.31, 0.69]", fillcolor="#399de58d"] ;
64 -> 65 ;
66 [label="sfh <= 0.0\ngini = 0.45\nsamples = 2.8%\nvalue = [0.35, 0.65]", fillcolor="#399de578"] ;
65 -> 66 ;
67 [label="gini = 0.49\nsamples = 2.3%\nvalue = [0.43, 0.57]", fillcolor="#399de53f"] ;
66 -> 67 ;
68 [label="gini = 0.0\nsamples = 0.6%\nvalue = [0.0, 1.0]", fillcolor="#399de5ff"] ;
66 -> 68 ;
69 [label="sfh <= 0.0\ngini = 0.37\nsamples = 1.6%\nvalue = [0.24, 0.76]", fillcolor="#399de5ae"] ;
65 -> 69 ;
70 [label="gini = 0.42\nsamples = 1.3%\nvalue = [0.3, 0.7]", fillcolor="#399de590"] ;
69 -> 70 ;
71 [label="gini = 0.0\nsamples = 0.3%\nvalue = [0.0, 1.0]", fillcolor="#399de5ff"] ;
69 -> 71 ;
72 [label="gini = 0.0\nsamples = 0.1%\nvalue = [0.0, 1.0]", fillcolor="#399de5ff"] ;
64 -> 72 ;
73 [label="onMouseOver <= -0.5\ngini = 0.48\nsamples = 0.1%\nvalue = [0.59, 0.41]", fillcolor="#e581394e"] ;
63 -> 73 ;
74 [label="gini = 0.0\nsamples = 0.0%\nvalue = [0.0, 1.0]", fillcolor="#399de5ff"] ;
73 -> 74 ;
75 [label="sfh <= 0.0\ngini = 0.43\nsamples = 0.1%\nvalue = [0.68, 0.32]", fillcolor="#e5813989"] ;
73 -> 75 ;
76 [label="gini = 0.23\nsamples = 0.1%\nvalue = [0.87, 0.13]", fillcolor="#e58139d8"] ;
75 -> 76 ;
77 [label="gini = 0.0\nsamples = 0.0%\nvalue = [0.0, 1.0]", fillcolor="#399de5ff"] ;
75 -> 77 ;
78 [label="dnsRecord <= 0.0\ngini = 0.15\nsamples = 2.9%\nvalue = [0.08, 0.92]", fillcolor="#399de5e9"] ;
62 -> 78 ;
79 [label="sfh <= 0.0\ngini = 0.15\nsamples = 2.8%\nvalue = [0.08, 0.92]", fillcolor="#399de5e8"] ;
78 -> 79 ;
80 [label="havingAtSymbol <= 0.0\ngini = 0.22\nsamples = 1.8%\nvalue = [0.12, 0.88]", fillcolor="#399de5db"] ;
79 -> 80 ;
81 [label="onMouseOver <= -0.5\ngini = 0.22\nsamples = 1.8%\nvalue = [0.13, 0.87]", fillcolor="#399de5da"] ;
80 -> 81 ;
82 [label="gini = 0.36\nsamples = 1.0%\nvalue = [0.23, 0.77]", fillcolor="#399de5b1"] ;
81 -> 82 ;
83 [label="gini = 0.0\nsamples = 0.8%\nvalue = [0.0, 1.0]", fillcolor="#399de5ff"] ;
81 -> 83 ;
84 [label="gini = 0.0\nsamples = 0.1%\nvalue = [0.0, 1.0]", fillcolor="#399de5ff"] ;
80 -> 84 ;
85 [label="gini = 0.0\nsamples = 1.0%\nvalue = [0.0, 1.0]", fillcolor="#399de5ff"] ;
79 -> 85 ;
86 [label="gini = 0.0\nsamples = 0.1%\nvalue = [0.0, 1.0]", fillcolor="#399de5ff"] ;
78 -> 86 ;
87 [label="onMouseOver <= -0.5\ngini = 0.07\nsamples = 0.9%\nvalue = [0.04, 0.96]", fillcolor="#399de5f6"] ;
61 -> 87 ;
88 [label="urlLength <= 0.0\ngini = 0.12\nsamples = 0.5%\nvalue = [0.06, 0.94]", fillcolor="#399de5ee"] ;
87 -> 88 ;
89 [label="sfh <= 0.0\ngini = 0.32\nsamples = 0.2%\nvalue = [0.2, 0.8]", fillcolor="#399de5bf"] ;
88 -> 89 ;
90 [label="gini = 0.44\nsamples = 0.1%\nvalue = [0.33, 0.67]", fillcolor="#399de57f"] ;
89 -> 90 ;
91 [label="gini = 0.0\nsamples = 0.1%\nvalue = [0.0, 1.0]", fillcolor="#399de5ff"] ;
89 -> 91 ;
92 [label="gini = 0.0\nsamples = 0.3%\nvalue = [0.0, 1.0]", fillcolor="#399de5ff"] ;
88 -> 92 ;
93 [label="gini = 0.0\nsamples = 0.4%\nvalue = [0.0, 1.0]", fillcolor="#399de5ff"] ;
87 -> 93 ;
94 [label="gini = 0.0\nsamples = 5.0%\nvalue = [0.0, 1.0]", fillcolor="#399de5ff"] ;
60 -> 94 ;
95 [label="onMouseOver <= -0.5\ngini = 0.33\nsamples = 3.6%\nvalue = [0.21, 0.79]", fillcolor="#399de5bd"] ;
59 -> 95 ;
96 [label="urlLength <= 0.0\ngini = 0.4\nsamples = 2.0%\nvalue = [0.28, 0.72]", fillcolor="#399de59c"] ;
95 -> 96 ;
97 [label="sfh <= 0.0\ngini = 0.46\nsamples = 1.2%\nvalue = [0.36, 0.64]", fillcolor="#399de572"] ;
96 -> 97 ;
98 [label="doubleSlashRedirecting <= 0.0\ngini = 0.48\nsamples = 1.1%\nvalue = [0.39, 0.61]", fillcolor="#399de55a"] ;
97 -> 98 ;
99 [label="gini = 0.0\nsamples = 0.0%\nvalue = [0.0, 1.0]", fillcolor="#399de5ff"] ;
98 -> 99 ;
100 [label="havingAtSymbol <= 0.0\ngini = 0.48\nsamples = 1.0%\nvalue = [0.4, 0.6]", fillcolor="#399de552"] ;
98 -> 100 ;
101 [label="dnsRecord <= 0.0\ngini = 0.49\nsamples = 1.0%\nvalue = [0.42, 0.58]", fillcolor="#399de549"] ;
100 -> 101 ;
102 [label="getageOfDomain <= -0.5\ngini = 0.49\nsamples = 1.0%\nvalue = [0.42, 0.58]", fillcolor="#399de545"] ;
101 -> 102 ;
103 [label="gini = 0.5\nsamples = 0.8%\nvalue = [0.52, 0.48]", fillcolor="#e5813912"] ;
102 -> 103 ;
104 [label="gini = 0.0\nsamples = 0.2%\nvalue = [0.0, 1.0]", fillcolor="#399de5ff"] ;
102 -> 104 ;
105 [label="gini = 0.0\nsamples = 0.0%\nvalue = [0.0, 1.0]", fillcolor="#399de5ff"] ;
101 -> 105 ;
106 [label="gini = 0.0\nsamples = 0.0%\nvalue = [0.0, 1.0]", fillcolor="#399de5ff"] ;
100 -> 106 ;
107 [label="gini = 0.0\nsamples = 0.1%\nvalue = [0.0, 1.0]", fillcolor="#399de5ff"] ;
97 -> 107 ;
108 [label="getageOfDomain <= -0.5\ngini = 0.28\nsamples = 0.8%\nvalue = [0.17, 0.83]", fillcolor="#399de5ca"] ;
96 -> 108 ;
109 [label="dnsRecord <= 0.0\ngini = 0.34\nsamples = 0.7%\nvalue = [0.22, 0.78]", fillcolor="#399de5b9"] ;
108 -> 109 ;
110 [label="sfh <= 0.0\ngini = 0.36\nsamples = 0.6%\nvalue = [0.24, 0.76]", fillcolor="#399de5b0"] ;
109 -> 110 ;
111 [label="havingAtSymbol <= 0.0\ngini = 0.37\nsamples = 0.6%\nvalue = [0.24, 0.76]", fillcolor="#399de5ae"] ;
110 -> 111 ;
112 [label="gini = 0.45\nsamples = 0.4%\nvalue = [0.34, 0.66]", fillcolor="#399de57c"] ;
111 -> 112 ;
113 [label="gini = 0.0\nsamples = 0.2%\nvalue = [0.0, 1.0]", fillcolor="#399de5ff"] ;
111 -> 113 ;
114 [label="gini = 0.0\nsamples = 0.0%\nvalue = [0.0, 1.0]", fillcolor="#399de5ff"] ;
110 -> 114 ;
115 [label="gini = 0.0\nsamples = 0.0%\nvalue = [0.0, 1.0]", fillcolor="#399de5ff"] ;
109 -> 115 ;
116 [label="gini = 0.0\nsamples = 0.1%\nvalue = [0.0, 1.0]", fillcolor="#399de5ff"] ;
108 -> 116 ;
117 [label="doubleSlashRedirecting <= 0.0\ngini = 0.21\nsamples = 1.6%\nvalue = [0.12, 0.88]", fillcolor="#399de5dc"] ;
95 -> 117 ;
118 [label="gini = 0.0\nsamples = 0.0%\nvalue = [0.0, 1.0]", fillcolor="#399de5ff"] ;
117 -> 118 ;
119 [label="havingAtSymbol <= 0.0\ngini = 0.21\nsamples = 1.6%\nvalue = [0.12, 0.88]", fillcolor="#399de5dc"] ;
117 -> 119 ;
120 [label="getageOfDomain <= -0.5\ngini = 0.21\nsamples = 1.6%\nvalue = [0.12, 0.88]", fillcolor="#399de5dc"] ;
119 -> 120 ;
121 [label="urlLength <= 0.0\ngini = 0.38\nsamples = 0.8%\nvalue = [0.26, 0.74]", fillcolor="#399de5a7"] ;
120 -> 121 ;
122 [label="sfh <= 0.0\ngini = 0.4\nsamples = 0.5%\nvalue = [0.28, 0.72]", fillcolor="#399de59b"] ;
121 -> 122 ;
123 [label="gini = 0.43\nsamples = 0.4%\nvalue = [0.31, 0.69]", fillcolor="#399de58e"] ;
122 -> 123 ;
124 [label="gini = 0.0\nsamples = 0.0%\nvalue = [0.0, 1.0]", fillcolor="#399de5ff"] ;
122 -> 124 ;
125 [label="sfh <= 0.0\ngini = 0.36\nsamples = 0.3%\nvalue = [0.23, 0.77]", fillcolor="#399de5b3"] ;
121 -> 125 ;
126 [label="gini = 0.4\nsamples = 0.2%\nvalue = [0.27, 0.73]", fillcolor="#399de59f"] ;
125 -> 126 ;
127 [label="gini = 0.0\nsamples = 0.1%\nvalue = [0.0, 1.0]", fillcolor="#399de5ff"] ;
125 -> 127 ;
128 [label="gini = 0.0\nsamples = 0.8%\nvalue = [0.0, 1.0]", fillcolor="#399de5ff"] ;
120 -> 128 ;
129 [label="gini = 0.0\nsamples = 0.0%\nvalue = [0.0, 1.0]", fillcolor="#399de5ff"] ;
119 -> 129 ;
130 [label="dnsRecord <= 0.0\ngini = 0.47\nsamples = 0.3%\nvalue = [0.61, 0.39]", fillcolor="#e581395e"] ;
58 -> 130 ;
131 [label="prefixSuffix <= -0.5\ngini = 0.44\nsamples = 0.3%\nvalue = [0.67, 0.33]", fillcolor="#e581397f"] ;
130 -> 131 ;
132 [label="sfh <= 0.0\ngini = 0.47\nsamples = 0.1%\nvalue = [0.38, 0.62]", fillcolor="#399de566"] ;
131 -> 132 ;
133 [label="urlLength <= 0.0\ngini = 0.5\nsamples = 0.1%\nvalue = [0.55, 0.45]", fillcolor="#e581392a"] ;
132 -> 133 ;
134 [label="getageOfDomain <= -0.5\ngini = 0.38\nsamples = 0.1%\nvalue = [0.75, 0.25]", fillcolor="#e58139aa"] ;
133 -> 134 ;
135 [label="gini = 0.0\nsamples = 0.0%\nvalue = [1.0, 0.0]", fillcolor="#e58139ff"] ;
134 -> 135 ;
136 [label="gini = 0.0\nsamples = 0.0%\nvalue = [0.0, 1.0]", fillcolor="#399de5ff"] ;
134 -> 136 ;
137 [label="gini = 0.0\nsamples = 0.0%\nvalue = [0.0, 1.0]", fillcolor="#399de5ff"] ;
133 -> 137 ;
138 [label="gini = 0.0\nsamples = 0.0%\nvalue = [0.0, 1.0]", fillcolor="#399de5ff"] ;
132 -> 138 ;
139 [label="getageOfDomain <= -0.5\ngini = 0.29\nsamples = 0.2%\nvalue = [0.83, 0.17]", fillcolor="#e58139ca"] ;
131 -> 139 ;
140 [label="havingAtSymbol <= 0.5\ngini = 0.24\nsamples = 0.2%\nvalue = [0.86, 0.14]", fillcolor="#e58139d4"] ;
139 -> 140 ;
141 [label="prefixSuffix <= 0.5\ngini = 0.2\nsamples = 0.1%\nvalue = [0.89, 0.11]", fillcolor="#e58139df"] ;
140 -> 141 ;
142 [label="gini = 0.0\nsamples = 0.0%\nvalue = [1.0, 0.0]", fillcolor="#e58139ff"] ;
141 -> 142 ;
143 [label="gini = 0.21\nsamples = 0.1%\nvalue = [0.88, 0.12]", fillcolor="#e58139dc"] ;
141 -> 143 ;
144 [label="gini = 0.0\nsamples = 0.0%\nvalue = [0.0, 1.0]", fillcolor="#399de5ff"] ;
140 -> 144 ;
145 [label="gini = 0.0\nsamples = 0.0%\nvalue = [0.0, 1.0]", fillcolor="#399de5ff"] ;
139 -> 145 ;
146 [label="gini = 0.0\nsamples = 0.0%\nvalue = [0.0, 1.0]", fillcolor="#399de5ff"] ;
130 -> 146 ;
147 [label="gini = 0.0\nsamples = 6.6%\nvalue = [0.0, 1.0]", fillcolor="#399de5ff"] ;
57 -> 147 ;
148 [label="prefixSuffix <= -0.5\ngini = 0.09\nsamples = 63.0%\nvalue = [0.05, 0.95]", fillcolor="#399de5f2"] ;
0 -> 148 [labeldistance=2.5, labelangle=-45, headlabel="False"] ;
149 [label="favicon <= 0.5\ngini = 0.11\nsamples = 43.8%\nvalue = [0.06, 0.94]", fillcolor="#399de5ef"] ;
148 -> 149 ;
150 [label="httpsToken <= 0.5\ngini = 0.17\nsamples = 15.1%\nvalue = [0.09, 0.91]", fillcolor="#399de5e5"] ;
149 -> 150 ;
151 [label="urlLength <= 0.0\ngini = 0.1\nsamples = 13.1%\nvalue = [0.05, 0.95]", fillcolor="#399de5f1"] ;
150 -> 151 ;
152 [label="onMouseOver <= -0.5\ngini = 0.19\nsamples = 5.2%\nvalue = [0.1, 0.9]", fillcolor="#399de5e2"] ;
151 -> 152 ;
153 [label="getageOfDomain <= -0.5\ngini = 0.09\nsamples = 0.1%\nvalue = [0.05, 0.95]", fillcolor="#399de5f2"] ;
152 -> 153 ;
154 [label="usingIPAddress <= 0.0\ngini = 0.32\nsamples = 0.0%\nvalue = [0.2, 0.8]", fillcolor="#399de5bf"] ;
153 -> 154 ;
155 [label="gini = 0.38\nsamples = 0.0%\nvalue = [0.25, 0.75]", fillcolor="#399de5aa"] ;
154 -> 155 ;
156 [label="gini = 0.0\nsamples = 0.0%\nvalue = [0.0, 1.0]", fillcolor="#399de5ff"] ;
154 -> 156 ;
157 [label="gini = 0.0\nsamples = 0.1%\nvalue = [0.0, 1.0]", fillcolor="#399de5ff"] ;
153 -> 157 ;
158 [label="getageOfDomain <= -0.5\ngini = 0.19\nsamples = 5.1%\nvalue = [0.11, 0.89]", fillcolor="#399de5e1"] ;
152 -> 158 ;
159 [label="doubleSlashRedirecting <= 0.0\ngini = 0.34\nsamples = 2.4%\nvalue = [0.22, 0.78]", fillcolor="#399de5b8"] ;
158 -> 159 ;
160 [label="gini = 0.0\nsamples = 0.0%\nvalue = [0.0, 1.0]", fillcolor="#399de5ff"] ;
159 -> 160 ;
161 [label="sfh <= 0.0\ngini = 0.34\nsamples = 2.4%\nvalue = [0.22, 0.78]", fillcolor="#399de5b7"] ;
159 -> 161 ;
162 [label="usingIPAddress <= 0.0\ngini = 0.4\nsamples = 2.0%\nvalue = [0.27, 0.73]", fillcolor="#399de5a0"] ;
161 -> 162 ;
163 [label="dnsRecord <= 0.0\ngini = 0.44\nsamples = 1.6%\nvalue = [0.33, 0.67]", fillcolor="#399de583"] ;
162 -> 163 ;
164 [label="gini = 0.44\nsamples = 1.6%\nvalue = [0.33, 0.67]", fillcolor="#399de580"] ;
163 -> 164 ;
165 [label="gini = 0.0\nsamples = 0.0%\nvalue = [0.0, 1.0]", fillcolor="#399de5ff"] ;
163 -> 165 ;
166 [label="gini = 0.0\nsamples = 0.4%\nvalue = [0.0, 1.0]", fillcolor="#399de5ff"] ;
162 -> 166 ;
167 [label="gini = 0.0\nsamples = 0.5%\nvalue = [0.0, 1.0]", fillcolor="#399de5ff"] ;
161 -> 167 ;
168 [label="gini = 0.0\nsamples = 2.6%\nvalue = [0.0, 1.0]", fillcolor="#399de5ff"] ;
158 -> 168 ;
169 [label="dnsRecord <= 0.0\ngini = 0.03\nsamples = 7.9%\nvalue = [0.01, 0.99]", fillcolor="#399de5fb"] ;
151 -> 169 ;
170 [label="sfh <= 0.0\ngini = 0.03\nsamples = 7.0%\nvalue = [0.02, 0.98]", fillcolor="#399de5fb"] ;
169 -> 170 ;
171 [label="usingIPAddress <= 0.0\ngini = 0.06\nsamples = 4.1%\nvalue = [0.03, 0.97]", fillcolor="#399de5f7"] ;
170 -> 171 ;
172 [label="onMouseOver <= -0.5\ngini = 0.09\nsamples = 2.5%\nvalue = [0.05, 0.95]", fillcolor="#399de5f2"] ;
171 -> 172 ;
173 [label="gini = 0.0\nsamples = 0.0%\nvalue = [0.0, 1.0]", fillcolor="#399de5ff"] ;
172 -> 173 ;
174 [label="havingSubDomain <= 0.0\ngini = 0.09\nsamples = 2.4%\nvalue = [0.05, 0.95]", fillcolor="#399de5f2"] ;
172 -> 174 ;
175 [label="gini = 0.0\nsamples = 0.0%\nvalue = [0.0, 1.0]", fillcolor="#399de5ff"] ;
174 -> 175 ;
176 [label="favicon <= -0.5\ngini = 0.09\nsamples = 2.4%\nvalue = [0.05, 0.95]", fillcolor="#399de5f2"] ;
174 -> 176 ;
177 [label="gini = 0.0\nsamples = 0.0%\nvalue = [0.0, 1.0]", fillcolor="#399de5ff"] ;
176 -> 177 ;
178 [label="onMouseOver <= 0.5\ngini = 0.09\nsamples = 2.4%\nvalue = [0.05, 0.95]", fillcolor="#399de5f2"] ;
176 -> 178 ;
179 [label="getageOfDomain <= -0.5\ngini = 0.1\nsamples = 2.4%\nvalue = [0.05, 0.95]", fillcolor="#399de5f2"] ;
178 -> 179 ;
180 [label="gini = 0.13\nsamples = 1.7%\nvalue = [0.07, 0.93]", fillcolor="#399de5eb"] ;
179 -> 180 ;
181 [label="gini = 0.0\nsamples = 0.7%\nvalue = [0.0, 1.0]", fillcolor="#399de5ff"] ;
179 -> 181 ;
182 [label="gini = 0.0\nsamples = 0.0%\nvalue = [0.0, 1.0]", fillcolor="#399de5ff"] ;
178 -> 182 ;
183 [label="gini = 0.0\nsamples = 1.6%\nvalue = [0.0, 1.0]", fillcolor="#399de5ff"] ;
171 -> 183 ;
184 [label="gini = 0.0\nsamples = 2.9%\nvalue = [0.0, 1.0]", fillcolor="#399de5ff"] ;
170 -> 184 ;
185 [label="gini = 0.0\nsamples = 1.0%\nvalue = [0.0, 1.0]", fillcolor="#399de5ff"] ;
169 -> 185 ;
186 [label="onMouseOver <= 0.5\ngini = 0.46\nsamples = 1.9%\nvalue = [0.36, 0.64]", fillcolor="#399de572"] ;
150 -> 186 ;
187 [label="sfh <= 0.0\ngini = 0.46\nsamples = 1.9%\nvalue = [0.36, 0.64]", fillcolor="#399de56e"] ;
186 -> 187 ;
188 [label="doubleSlashRedirecting <= 0.0\ngini = 0.49\nsamples = 1.7%\nvalue = [0.42, 0.58]", fillcolor="#399de549"] ;
187 -> 188 ;
189 [label="gini = 0.0\nsamples = 0.0%\nvalue = [0.0, 1.0]", fillcolor="#399de5ff"] ;
188 -> 189 ;
190 [label="dnsRecord <= 0.0\ngini = 0.49\nsamples = 1.7%\nvalue = [0.42, 0.58]", fillcolor="#399de543"] ;
188 -> 190 ;
191 [label="usingIPAddress <= 0.0\ngini = 0.5\nsamples = 1.4%\nvalue = [0.5, 0.5]", fillcolor="#399de503"] ;
190 -> 191 ;
192 [label="favicon <= -0.5\ngini = 0.48\nsamples = 1.2%\nvalue = [0.6, 0.4]", fillcolor="#e5813953"] ;
191 -> 192 ;
193 [label="gini = 0.0\nsamples = 0.0%\nvalue = [0.0, 1.0]", fillcolor="#399de5ff"] ;
192 -> 193 ;
194 [label="getageOfDomain <= -0.5\ngini = 0.48\nsamples = 1.2%\nvalue = [0.6, 0.4]", fillcolor="#e5813956"] ;
192 -> 194 ;
195 [label="havingAtSymbol <= 0.0\ngini = 0.43\nsamples = 1.0%\nvalue = [0.68, 0.32]", fillcolor="#e5813989"] ;
194 -> 195 ;
196 [label="urlLength <= 0.0\ngini = 0.39\nsamples = 1.0%\nvalue = [0.74, 0.26]", fillcolor="#e58139a4"] ;
195 -> 196 ;
197 [label="onMouseOver <= -0.5\ngini = 0.31\nsamples = 0.8%\nvalue = [0.81, 0.19]", fillcolor="#e58139c4"] ;
196 -> 197 ;
198 [label="gini = 0.38\nsamples = 0.5%\nvalue = [0.75, 0.25]", fillcolor="#e58139a8"] ;
197 -> 198 ;
199 [label="gini = 0.17\nsamples = 0.3%\nvalue = [0.9, 0.1]", fillcolor="#e58139e4"] ;
197 -> 199 ;
200 [label="onMouseOver <= -0.5\ngini = 0.5\nsamples = 0.2%\nvalue = [0.46, 0.54]", fillcolor="#399de522"] ;
196 -> 200 ;
201 [label="gini = 0.5\nsamples = 0.2%\nvalue = [0.54, 0.46]", fillcolor="#e5813927"] ;
200 -> 201 ;
202 [label="gini = 0.0\nsamples = 0.0%\nvalue = [0.0, 1.0]", fillcolor="#399de5ff"] ;
200 -> 202 ;
203 [label="gini = 0.0\nsamples = 0.1%\nvalue = [0.0, 1.0]", fillcolor="#399de5ff"] ;
195 -> 203 ;
204 [label="gini = 0.0\nsamples = 0.2%\nvalue = [0.0, 1.0]", fillcolor="#399de5ff"] ;
194 -> 204 ;
205 [label="gini = 0.0\nsamples = 0.2%\nvalue = [0.0, 1.0]", fillcolor="#399de5ff"] ;
191 -> 205 ;
206 [label="gini = 0.0\nsamples = 0.2%\nvalue = [0.0, 1.0]", fillcolor="#399de5ff"] ;
190 -> 206 ;
207 [label="gini = 0.0\nsamples = 0.2%\nvalue = [0.0, 1.0]", fillcolor="#399de5ff"] ;
187 -> 207 ;
208 [label="gini = 0.0\nsamples = 0.0%\nvalue = [0.0, 1.0]", fillcolor="#399de5ff"] ;
186 -> 208 ;
209 [label="usingIPAddress <= 0.0\ngini = 0.08\nsamples = 28.7%\nvalue = [0.04, 0.96]", fillcolor="#399de5f4"] ;
149 -> 209 ;
210 [label="getageOfDomain <= -0.5\ngini = 0.12\nsamples = 18.2%\nvalue = [0.06, 0.94]", fillcolor="#399de5ee"] ;
209 -> 210 ;
211 [label="sfh <= 0.0\ngini = 0.18\nsamples = 11.2%\nvalue = [0.1, 0.9]", fillcolor="#399de5e3"] ;
210 -> 211 ;
212 [label="havingSubDomain <= 0.0\ngini = 0.25\nsamples = 7.6%\nvalue = [0.15, 0.85]", fillcolor="#399de5d3"] ;
211 -> 212 ;
213 [label="gini = 0.0\nsamples = 0.0%\nvalue = [0.0, 1.0]", fillcolor="#399de5ff"] ;
212 -> 213 ;
214 [label="doubleSlashRedirecting <= 0.0\ngini = 0.25\nsamples = 7.5%\nvalue = [0.15, 0.85]", fillcolor="#399de5d3"] ;
212 -> 214 ;
215 [label="gini = 0.0\nsamples = 0.0%\nvalue = [0.0, 1.0]", fillcolor="#399de5ff"] ;
214 -> 215 ;
216 [label="dnsRecord <= 0.0\ngini = 0.25\nsamples = 7.5%\nvalue = [0.15, 0.85]", fillcolor="#399de5d3"] ;
214 -> 216 ;
217 [label="httpsToken <= 0.5\ngini = 0.26\nsamples = 7.3%\nvalue = [0.15, 0.85]", fillcolor="#399de5d1"] ;
216 -> 217 ;
218 [label="havingAtSymbol <= 0.0\ngini = 0.18\nsamples = 5.7%\nvalue = [0.1, 0.9]", fillcolor="#399de5e3"] ;
217 -> 218 ;
219 [label="urlLength <= 0.0\ngini = 0.18\nsamples = 5.6%\nvalue = [0.1, 0.9]", fillcolor="#399de5e2"] ;
218 -> 219 ;
220 [label="onMouseOver <= -0.5\ngini = 0.19\nsamples = 2.6%\nvalue = [0.1, 0.9]", fillcolor="#399de5e1"] ;
219 -> 220 ;
221 [label="gini = 0.0\nsamples = 0.2%\nvalue = [0.0, 1.0]", fillcolor="#399de5ff"] ;
220 -> 221 ;
222 [label="gini = 0.2\nsamples = 2.4%\nvalue = [0.11, 0.89]", fillcolor="#399de5df"] ;
220 -> 222 ;
223 [label="onMouseOver <= -0.5\ngini = 0.18\nsamples = 3.0%\nvalue = [0.1, 0.9]", fillcolor="#399de5e3"] ;
219 -> 223 ;
224 [label="gini = 0.0\nsamples = 0.4%\nvalue = [0.0, 1.0]", fillcolor="#399de5ff"] ;
223 -> 224 ;
225 [label="onMouseOver <= 0.5\ngini = 0.2\nsamples = 2.7%\nvalue = [0.11, 0.89]", fillcolor="#399de5de"] ;
223 -> 225 ;
226 [label="gini = 0.2\nsamples = 2.7%\nvalue = [0.11, 0.89]", fillcolor="#399de5de"] ;
225 -> 226 ;
227 [label="gini = 0.0\nsamples = 0.0%\nvalue = [0.0, 1.0]", fillcolor="#399de5ff"] ;
225 -> 227 ;
228 [label="gini = 0.0\nsamples = 0.1%\nvalue = [0.0, 1.0]", fillcolor="#399de5ff"] ;
218 -> 228 ;
229 [label="onMouseOver <= -0.5\ngini = 0.45\nsamples = 1.6%\nvalue = [0.35, 0.65]", fillcolor="#399de578"] ;
217 -> 229 ;
230 [label="urlLength <= 0.0\ngini = 0.38\nsamples = 1.1%\nvalue = [0.25, 0.75]", fillcolor="#399de5a8"] ;
229 -> 230 ;
231 [label="gini = 0.49\nsamples = 0.6%\nvalue = [0.43, 0.57]", fillcolor="#399de53d"] ;
230 -> 231 ;
232 [label="gini = 0.0\nsamples = 0.4%\nvalue = [0.0, 1.0]", fillcolor="#399de5ff"] ;
230 -> 232 ;
233 [label="onMouseOver <= 0.5\ngini = 0.49\nsamples = 0.5%\nvalue = [0.56, 0.44]", fillcolor="#e5813939"] ;
229 -> 233 ;
234 [label="urlLength <= 0.0\ngini = 0.44\nsamples = 0.4%\nvalue = [0.67, 0.33]", fillcolor="#e581397f"] ;
233 -> 234 ;
235 [label="gini = 0.36\nsamples = 0.3%\nvalue = [0.77, 0.23]", fillcolor="#e58139b2"] ;
234 -> 235 ;
236 [label="gini = 0.4\nsamples = 0.1%\nvalue = [0.27, 0.73]", fillcolor="#399de59f"] ;
234 -> 236 ;
237 [label="gini = 0.0\nsamples = 0.1%\nvalue = [0.0, 1.0]", fillcolor="#399de5ff"] ;
233 -> 237 ;
238 [label="gini = 0.0\nsamples = 0.2%\nvalue = [0.0, 1.0]", fillcolor="#399de5ff"] ;
216 -> 238 ;
239 [label="gini = 0.0\nsamples = 3.7%\nvalue = [0.0, 1.0]", fillcolor="#399de5ff"] ;
211 -> 239 ;
240 [label="gini = 0.0\nsamples = 7.0%\nvalue = [0.0, 1.0]", fillcolor="#399de5ff"] ;
210 -> 240 ;
241 [label="gini = 0.0\nsamples = 10.5%\nvalue = [0.0, 1.0]", fillcolor="#399de5ff"] ;
209 -> 241 ;
242 [label="getageOfDomain <= -0.5\ngini = 0.05\nsamples = 19.2%\nvalue = [0.02, 0.98]", fillcolor="#399de5f9"] ;
148 -> 242 ;
243 [label="httpsToken <= 0.5\ngini = 0.14\nsamples = 5.9%\nvalue = [0.07, 0.93]", fillcolor="#399de5eb"] ;
242 -> 243 ;
244 [label="usingIPAddress <= 0.0\ngini = 0.06\nsamples = 4.6%\nvalue = [0.03, 0.97]", fillcolor="#399de5f7"] ;
243 -> 244 ;
245 [label="urlLength <= 0.0\ngini = 0.07\nsamples = 3.8%\nvalue = [0.04, 0.96]", fillcolor="#399de5f5"] ;
244 -> 245 ;
246 [label="dnsRecord <= 0.0\ngini = 0.06\nsamples = 1.5%\nvalue = [0.03, 0.97]", fillcolor="#399de5f8"] ;
245 -> 246 ;
247 [label="havingAtSymbol <= -0.5\ngini = 0.06\nsamples = 1.4%\nvalue = [0.03, 0.97]", fillcolor="#399de5f7"] ;
246 -> 247 ;
248 [label="favicon <= 0.5\ngini = 0.09\nsamples = 0.9%\nvalue = [0.05, 0.95]", fillcolor="#399de5f2"] ;
247 -> 248 ;
249 [label="sfh <= 0.0\ngini = 0.32\nsamples = 0.2%\nvalue = [0.2, 0.8]", fillcolor="#399de5bf"] ;
248 -> 249 ;
250 [label="onMouseOver <= -0.5\ngini = 0.36\nsamples = 0.1%\nvalue = [0.24, 0.76]", fillcolor="#399de5b1"] ;
249 -> 250 ;
251 [label="gini = 0.0\nsamples = 0.0%\nvalue = [1.0, 0.0]", fillcolor="#e58139ff"] ;
250 -> 251 ;
252 [label="gini = 0.13\nsamples = 0.1%\nvalue = [0.07, 0.93]", fillcolor="#399de5eb"] ;
250 -> 252 ;
253 [label="gini = 0.0\nsamples = 0.0%\nvalue = [0.0, 1.0]", fillcolor="#399de5ff"] ;
249 -> 253 ;
254 [label="onMouseOver <= -0.5\ngini = 0.04\nsamples = 0.7%\nvalue = [0.02, 0.98]", fillcolor="#399de5fa"] ;
248 -> 254 ;
255 [label="gini = 0.0\nsamples = 0.1%\nvalue = [0.0, 1.0]", fillcolor="#399de5ff"] ;
254 -> 255 ;
256 [label="sfh <= 0.0\ngini = 0.05\nsamples = 0.6%\nvalue = [0.02, 0.98]", fillcolor="#399de5f9"] ;
254 -> 256 ;
257 [label="gini = 0.05\nsamples = 0.5%\nvalue = [0.03, 0.97]", fillcolor="#399de5f8"] ;
256 -> 257 ;
258 [label="gini = 0.0\nsamples = 0.1%\nvalue = [0.0, 1.0]", fillcolor="#399de5ff"] ;
256 -> 258 ;
259 [label="gini = 0.0\nsamples = 0.5%\nvalue = [0.0, 1.0]", fillcolor="#399de5ff"] ;
247 -> 259 ;
260 [label="gini = 0.0\nsamples = 0.1%\nvalue = [0.0, 1.0]", fillcolor="#399de5ff"] ;
246 -> 260 ;
261 [label="dnsRecord <= 0.0\ngini = 0.08\nsamples = 2.3%\nvalue = [0.04, 0.96]", fillcolor="#399de5f4"] ;
245 -> 261 ;
262 [label="onMouseOver <= -0.5\ngini = 0.08\nsamples = 2.2%\nvalue = [0.04, 0.96]", fillcolor="#399de5f3"] ;
261 -> 262 ;
263 [label="gini = 0.0\nsamples = 0.3%\nvalue = [0.0, 1.0]", fillcolor="#399de5ff"] ;
262 -> 263 ;
264 [label="prefixSuffix <= 0.5\ngini = 0.09\nsamples = 1.9%\nvalue = [0.05, 0.95]", fillcolor="#399de5f2"] ;
262 -> 264 ;
265 [label="gini = 0.0\nsamples = 1.2%\nvalue = [0.0, 1.0]", fillcolor="#399de5ff"] ;
264 -> 265 ;
266 [label="havingAtSymbol <= 0.0\ngini = 0.22\nsamples = 0.7%\nvalue = [0.13, 0.87]", fillcolor="#399de5d9"] ;
264 -> 266 ;
267 [label="sfh <= 0.0\ngini = 0.23\nsamples = 0.7%\nvalue = [0.13, 0.87]", fillcolor="#399de5d8"] ;
266 -> 267 ;
268 [label="favicon <= 0.5\ngini = 0.26\nsamples = 0.6%\nvalue = [0.15, 0.85]", fillcolor="#399de5d1"] ;
267 -> 268 ;
269 [label="favicon <= -0.5\ngini = 0.47\nsamples = 0.1%\nvalue = [0.62, 0.38]", fillcolor="#e5813962"] ;
268 -> 269 ;
270 [label="gini = 0.0\nsamples = 0.0%\nvalue = [0.0, 1.0]", fillcolor="#399de5ff"] ;
269 -> 270 ;
271 [label="gini = 0.4\nsamples = 0.1%\nvalue = [0.72, 0.28]", fillcolor="#e581399d"] ;
269 -> 271 ;
272 [label="gini = 0.0\nsamples = 0.4%\nvalue = [0.0, 1.0]", fillcolor="#399de5ff"] ;
268 -> 272 ;
273 [label="gini = 0.0\nsamples = 0.1%\nvalue = [0.0, 1.0]", fillcolor="#399de5ff"] ;
267 -> 273 ;
274 [label="gini = 0.0\nsamples = 0.0%\nvalue = [0.0, 1.0]", fillcolor="#399de5ff"] ;
266 -> 274 ;
275 [label="gini = 0.0\nsamples = 0.1%\nvalue = [0.0, 1.0]", fillcolor="#399de5ff"] ;
261 -> 275 ;
276 [label="gini = 0.0\nsamples = 0.8%\nvalue = [0.0, 1.0]", fillcolor="#399de5ff"] ;
244 -> 276 ;
277 [label="usingIPAddress <= 0.0\ngini = 0.38\nsamples = 1.3%\nvalue = [0.25, 0.75]", fillcolor="#399de5a9"] ;
243 -> 277 ;
278 [label="onMouseOver <= -0.5\ngini = 0.42\nsamples = 1.0%\nvalue = [0.3, 0.7]", fillcolor="#399de592"] ;
277 -> 278 ;
279 [label="havingSubDomain <= 0.0\ngini = 0.2\nsamples = 0.7%\nvalue = [0.11, 0.89]", fillcolor="#399de5df"] ;
278 -> 279 ;
280 [label="gini = 0.0\nsamples = 0.0%\nvalue = [0.0, 1.0]", fillcolor="#399de5ff"] ;
279 -> 280 ;
281 [label="sfh <= 0.0\ngini = 0.21\nsamples = 0.7%\nvalue = [0.12, 0.88]", fillcolor="#399de5dd"] ;
279 -> 281 ;
282 [label="favicon <= 0.5\ngini = 0.23\nsamples = 0.6%\nvalue = [0.13, 0.87]", fillcolor="#399de5d8"] ;
281 -> 282 ;
283 [label="prefixSuffix <= 0.5\ngini = 0.5\nsamples = 0.2%\nvalue = [0.45, 0.55]", fillcolor="#399de52a"] ;
282 -> 283 ;
284 [label="gini = 0.0\nsamples = 0.1%\nvalue = [0.0, 1.0]", fillcolor="#399de5ff"] ;
283 -> 284 ;
285 [label="favicon <= -0.5\ngini = 0.28\nsamples = 0.1%\nvalue = [0.83, 0.17]", fillcolor="#e58139cc"] ;
283 -> 285 ;
286 [label="gini = 0.0\nsamples = 0.0%\nvalue = [0.0, 1.0]", fillcolor="#399de5ff"] ;
285 -> 286 ;
287 [label="gini = 0.17\nsamples = 0.1%\nvalue = [0.91, 0.09]", fillcolor="#e58139e6"] ;
285 -> 287 ;
288 [label="gini = 0.0\nsamples = 0.4%\nvalue = [0.0, 1.0]", fillcolor="#399de5ff"] ;
282 -> 288 ;
289 [label="gini = 0.0\nsamples = 0.1%\nvalue = [0.0, 1.0]", fillcolor="#399de5ff"] ;
281 -> 289 ;
290 [label="prefixSuffix <= 0.5\ngini = 0.44\nsamples = 0.4%\nvalue = [0.67, 0.33]", fillcolor="#e581397f"] ;
278 -> 290 ;
291 [label="gini = 0.0\nsamples = 0.0%\nvalue = [0.0, 1.0]", fillcolor="#399de5ff"] ;
290 -> 291 ;
292 [label="sfh <= 0.0\ngini = 0.39\nsamples = 0.3%\nvalue = [0.73, 0.27]", fillcolor="#e58139a1"] ;
290 -> 292 ;
293 [label="havingSubDomain <= 0.0\ngini = 0.36\nsamples = 0.3%\nvalue = [0.77, 0.23]", fillcolor="#e58139b3"] ;
292 -> 293 ;
294 [label="gini = 0.0\nsamples = 0.0%\nvalue = [0.0, 1.0]", fillcolor="#399de5ff"] ;
293 -> 294 ;
295 [label="favicon <= 0.5\ngini = 0.33\nsamples = 0.3%\nvalue = [0.79, 0.21]", fillcolor="#e58139bb"] ;
293 -> 295 ;
296 [label="gini = 0.0\nsamples = 0.0%\nvalue = [1.0, 0.0]", fillcolor="#e58139ff"] ;
295 -> 296 ;
297 [label="urlLength <= 0.0\ngini = 0.37\nsamples = 0.3%\nvalue = [0.76, 0.24]", fillcolor="#e58139ad"] ;
295 -> 297 ;
298 [label="gini = 0.32\nsamples = 0.2%\nvalue = [0.8, 0.2]", fillcolor="#e58139bf"] ;
297 -> 298 ;
299 [label="gini = 0.44\nsamples = 0.0%\nvalue = [0.33, 0.67]", fillcolor="#399de57f"] ;
297 -> 299 ;
300 [label="gini = 0.0\nsamples = 0.0%\nvalue = [0.0, 1.0]", fillcolor="#399de5ff"] ;
292 -> 300 ;
301 [label="gini = 0.0\nsamples = 0.2%\nvalue = [0.0, 1.0]", fillcolor="#399de5ff"] ;
277 -> 301 ;
302 [label="gini = 0.0\nsamples = 13.3%\nvalue = [0.0, 1.0]", fillcolor="#399de5ff"] ;
242 -> 302 ;
}